tree
version=v4
num_class=1
num_tree_per_iteration=1
label_index=0
max_feature_idx=17
objective=binary sigmoid:1
feature_names=mean_top_scenesDistance mean_top_frequencyCosine mean_top_geographicDistance mean_top_populationDistance mean_top_bachelorDistance mean_top_raceDistance mean_top_incomeDistance mean_top_employmentDistance mean_top_votingDistance mean_bottom_scenesDistance mean_bottom_frequencyCosine mean_bottom_geographicDistance mean_bottom_populationDistance mean_bottom_bachelorDistance mean_bottom_raceDistance mean_bottom_incomeDistance mean_bottom_employmentDistance mean_bottom_votingDistance
feature_infos=[0.019333605678930815:0.49142644136187846] [0.47243119225084218:0.9894448259555374] [19813.628482422169:8338557.3981422968] [643:20109415] [0.001403508771929296:123.46984272957485] [1.5589219639216275e-05:0.78501604741305064] [18:101721] [6.9214839453213273e-06:0.32340078536469419] [6.7650289463094815e-05:0.67964871565211782] [0.026216721601687032:0.47590858448089268] [0.48878520083563182:0.98877074506376905] [35121.708360206161:8124566.319715417] [487:20107047] [0.016301369863013448:123.77263331955355] [6.3416832164205875e-05:0.82449261957119502] [4:101654.5] [5.8499327857730599e-05:0.29913655593115618] [6.7650289463094815e-05:0.62479878469530237]
tree_sizes=3595 3571 3595 3618 3606 3620 3624 3624 3650 3670 3639 3636 3662 3661 3634 3641 3638 3641 3659 3648 3665 3703 3655 3681 3667 3672 3706 3721 3651 3685 3681 3683 3669 3680 3667 3706 3661 3660 3684 3656 3680 3700 3670 3713 3662 3675 3659 3696 3644 3653 3650 3694 3677 3674 3705 3651 3719 3654 3726 3664 3671 3659 3673 3733 3697 3691 3687 3675 3663 3705 3695 3664 3675 3648 3679 3667 3697 3682 3705 3640 3660 3647 3596 3681 3644 3744 3691 3681 3671 3667 3655 3586 3551 3599 3658 3628 3676 3633 3661 3690

Tree=0
num_leaves=31
num_cat=0
split_feature=2 1 3 10 12 2 1 12 3 1 1 3 1 10 6 3 3 3 12 8 3 8 3 4 14 7 10 2 1 2
split_gain=792801 503622 280235 179783 127185 125060 90962.7 78146 78847.5 73081.8 70064.9 50454.2 49148 38422.9 37956.8 36627.3 36425.2 34818.1 39844.7 32013.7 29564.8 30171.2 28145.3 28856.7 24752.5 22182.4 22023.9 20757.4 20805.6 20589.3
threshold=202925.11754599022 0.93893004138729996 9429601.6666666698 0.91414240290566096 3182275.980519481 104411.09941952272 0.95170154845980914 3182275.980519481 689499.16666666674 0.96765279180293373 0.84235132033130578 8411578.5000000019 0.96765279180293373 0.90834932271010038 4105.916666666667 9429601.6666666698 2705525.333333334 6657569.166666667 4431708.1335403742 0.044503008296169176 6657569.166666667 0.039436110449545377 6657569.166666667 13.605224047066995 0.026457345926662275 0.011601184065226351 0.93583347436092812 3764088.8357735048 0.88874393363440818 60548.130542734863
decision_type=2 2 10 2 10 2 2 10 8 2 2 8 2 2 8 10 10 10 10 8 10 8 10 10 8 8 2 2 2 2
left_child=5 2 3 7 9 29 16 8 -2 15 -5 12 -6 -4 -10 20 -7 26 -19 -16 21 -3 24 -24 -21 -23 -12 28 -26 -1
right_child=1 4 13 10 11 6 -8 -9 14 -11 17 -13 -14 -15 19 -17 -18 18 -20 22 -22 25 23 -25 27 -27 -28 -29 -30 -31
leaf_value=-0.63413603332021762 -0.86455258140775992 -0.75370413818473192 -0.80352230669316216 -0.7152418062292154 -0.79400679161484122 -0.81513085344965219 -0.70152282967052937 -0.85844651403057792 -0.80929151610906946 -0.76042396643779508 -0.85464727998992895 -0.69954024473406351 -0.71791927197715222 -0.72235733364482502 -0.83507791878437365 -0.73111493300390551 -0.73834446686219912 -0.97677318447873218 -0.81511321136011916 -0.89173715408980048 -0.91574578455026312 -0.75144024996562087 -0.78076696907585974 -1.0032159491797317 -0.9504296622358247 -0.84634299453154271 -0.81286573330361667 -0.84683611793542801 -0.91675552668431715 -0.69869054474108627
leaf_weight=63258.371984139085 287574.17127116024 40950.327235534787 146050.52151539922 42745.60648098588 407884.71140007675 253582.57655988634 144544.9997138232 351978.08122901618 28428.843612730503 146017.0026807338 345863.27404534817 96967.708092197776 107207.89805272222 97101.961273372173 37096.844589680433 30791.472055122256 81675.890651106834 41021.464372888207 24264.767148196697 183001.51883921027 51159.407387390733 25707.764208853245 6321.1294195353985 75295.848197296262 421235.70296604931 587061.00146530569 198606.58597436547 27206.064203754067 325072.77522581816 225636.28340563178
leaf_count=142359 1050419 121954 479232 117295 1314762 849989 384567 1272587 94281 440824 1242482 256816 295928 270655 128849 87467 235604 177854 81331 698723 202808 76206 19866 338572 1758791 2079294 662976 96442 1290663 596424
internal_value=-0.829789 -0.847134 -0.873399 -0.883781 -0.800735 -0.736536 -0.767834 -0.900541 -0.91119 -0.825047 -0.839005 -0.765713 -0.77817 -0.771109 -0.923342 -0.837873 -0.796424 -0.847681 -0.916689 -0.926358 -0.842537 -0.836808 -0.92962 -0.985988 -0.92481 -0.842361 -0.839407 -0.932634 -0.935762 -0.684555
internal_weight=4.90131e+06 4.13261e+06 2.63887e+06 2.39571e+06 1.49375e+06 768698 479803 1.74321e+06 1.39123e+06 881687 652502 612060 515093 243152 1.10366e+06 735670 335258 609756 65286.2 1.07523e+06 704879 653719 1.03813e+06 81617 956516 612769 544470 773515 746308 288895
internal_count=16866020 14657077 9781018 9031131 4876059 2208943 1470160 6749193 5476606 3008553 2281938 1867506 1610690 749887 4426187 2567729 1085593 2164643 259185 4331906 2480262 2277454 4203057 358438 3844619 2155500 1905458 3145896 3049454 738783
is_linear=0
shrinkage=1


Tree=1
num_leaves=31
num_cat=0
split_feature=2 1 3 10 12 2 1 1 1 6 12 3 3 1 3 3 12 3 12 9 6 11 11 4 10 12 5 1 2 3
split_gain=541668 364220 178087 131830 101205 79958.4 58173.3 55685.8 55022.7 54207.8 50072.1 41698.3 36412 36982.3 35146.8 32289.7 30846.3 27585.8 30450.7 24714 23914.6 23074.4 23473.9 21662.3 20036.4 18342.4 18122.5 18043.3 19211.2 16519.4
threshold=202925.11754599022 0.9343805978322185 9429601.6666666698 0.90911636216839309 3115837.1250000005 112866.5629884056 0.96304938633346138 0.96539149991438478 0.84550037505180442 5145.8333333333348 3115837.1250000005 648328.41666666686 8411578.5000000019 0.97013722828153115 9229003.6666666698 6657569.166666667 2029694.9545454548 6657569.166666667 4885853.5666666673 0.12156132957641995 3954.1666666666674 507059.27286517626 4004451.0130963172 6.3630468525443966 0.94220807536775253 2348552.1250000005 0.016206617754637952 0.94392043522669489 67077.034030581475 2194397.5000000005
decision_type=2 2 10 2 10 2 2 2 2 8 10 8 8 2 10 10 10 10 10 2 8 2 2 10 2 10 8 2 2 8
left_child=5 2 3 9 7 27 16 14 -5 -2 11 -11 13 23 15 20 -7 25 -19 -4 -3 -13 26 -6 -22 -10 -23 28 -1 -18
right_child=1 4 19 8 12 6 -8 -9 17 10 -12 21 -14 -15 -16 -17 29 18 -20 -21 24 22 -24 -25 -26 -27 -28 -29 -30 -31
leaf_value=0.22958842767044585 0.10124080372328355 0.15463895131975272 0.1684958466740768 0.17514135316230212 0.17714659018479903 0.099694354444392452 0.21098437812101631 0.14073870095984484 0.064935661529867669 0.054821826846225212 0.060808138953718865 0.04665788413710012 0.19044837448835034 0.19231794841399141 0.16987682962583683 0.0027810930226082951 0.12218707341067044 -0.040598945461885236 0.10537705015571973 0.10398387388356965 0.069541814125478538 0.0384598050963426 0.10198560576774472 0.11414807692531635 0.11241162211950956 0.10121787235971086 -0.0076790138887719173 0.23393066080228017 0.16863087386178785 0.1915929599772129
leaf_weight=72896.460853353143 98940.98983335495 43140.197535589337 119439.85579630733 57946.265282019973 61800.224103316665 236065.15130855143 90522.604818105698 197291.30216132104 329903.10661239922 219264.40122449398 306688.58178316057 124594.65308277309 125691.68397794664 85703.107382297516 42852.053537070751 54723.477630123496 64243.128539800644 40861.093024522066 21975.344521000981 118099.62308126688 558783.49197033048 96549.275459364057 22204.373006522655 467258.79631663859 135449.58489452302 241218.98760215938 719803.53514795005 116878.45860029757 177813.57813549042 73557.308352068067
leaf_count=154460 326653 125541 318608 152078 167047 747895 209862 570344 1155764 788612 1089212 470248 309715 211139 113799 221696 195666 180538 70184 372170 1934850 367941 73305 1444166 430989 788548 2973930 252725 463343 184992
internal_value=0.0927922 0.0784718 0.0540219 0.0454369 0.113194 0.166637 0.139056 0.0929574 0.0818663 0.0295648 0.0248024 0.0154634 0.141406 0.131379 0.0816671 0.076895 0.12164 0.0733406 0.0104522 0.136422 0.0823953 0.00650337 0.000537127 0.121507 0.077906 0.0802598 -0.00222222 0.201482 0.186355 0.159236
internal_weight=5.12216e+06 4.29018e+06 2.51749e+06 2.27995e+06 1.77269e+06 831977 464388 1.03224e+06 691905 1.58805e+06 1.4891e+06 1.18242e+06 740454 614762 834949 792097 373866 633959 62836.4 237539 737373 963152 838557 529059 694233 571122 816353 367588 250710 137800
internal_count=16866020 14657077 9127791 8437013 5529286 2208943 1338415 3397219 2347112 6089901 5763248 4674036 2132067 1822352 2826875 2713076 1128553 2195034 250722 690778 2491380 3885424 3415176 1611213 2365839 1944312 3341871 870528 617803 380658
is_linear=0
shrinkage=0.1


Tree=2
num_leaves=31
num_cat=0
split_feature=2 1 10 12 2 3 1 1 7 1 12 3 3 7 1 4 3 12 8 3 8 12 3 5 7 7 3 5 5 11
split_gain=397284 265566 131564 88125.5 68677.1 55575.5 51747 49123.4 47667.3 44680.5 37754.3 37573.8 40260.9 36927.9 29654.8 28984.7 26509.5 27085 23851.4 23726.1 22153.2 21524.2 20566.8 20507.7 20325.5 19471.4 18906.5 20809.2 18569.5 17437.2
threshold=224915.23049741753 0.92741063598155071 0.89484803046185313 3051941.4448160538 120911.47657721929 9429601.6666666698 0.84388307106723059 0.95170154845980914 0.015383161824804105 0.96086482052348188 3364071.5000000005 8836373.1666666698 6573254.8333333349 0.012905729489668987 0.95756114938210912 4.9331177466792209 6657569.166666667 5036616.8750000009 0.045758396074677028 8692516.6666666698 0.031204888706103055 1967697.4375000002 6385456.0833333349 0.078688491532683993 0.012905729489668987 0.013775349903732944 9955780.1666666698 0.016479983253052499 0.01068997071674972 4004451.0130963172
decision_type=2 2 2 10 2 10 2 2 8 2 10 10 10 10 2 8 10 10 8 10 8 10 10 10 8 8 10 8 8 2
left_child=4 2 8 9 -1 6 -4 21 -2 11 15 12 20 -5 19 -10 22 -18 -17 -15 -3 -6 25 -14 -22 -8 27 -20 -26 -29
right_child=1 3 5 13 7 -7 16 -9 10 -11 -12 -13 23 14 -16 18 17 -19 26 -21 24 -23 -24 -25 28 -27 -28 29 -30 -31
leaf_value=0.16774424247121963 0.10793418074876848 0.15620668165747637 0.14159514725856207 0.1812129593010903 0.074967605920060895 0.14109151007210843 0.13923842009835388 0.15973009496616555 0.082203826776999209 0.10982567915560004 0.054290094525720214 0.14140159560721324 -0.049468348408023034 0.085385147522962002 0.13566954976171816 0.083077981813921967 -0.050449567519700846 0.08446160195989233 0.035414085915593578 0.14151885971586614 0.13395697478824509 0.12556843975533544 0.18537502214232529 0.10449784994361616 0.09864136944460411 0.055673125883851073 0.085449968700696169 -0.0084283644174980195 0.052089028948665274 0.083607245699885396
leaf_weight=441344.36632196605 63907.83884690702 25942.830570086837 77862.460053294897 82595.013069212437 227919.94047358632 105697.34093296528 29168.875708162785 163267.81527523696 53827.447559460998 292444.21568955481 248879.14936757088 59865.054435178638 47117.353709965944 402108.11812384427 301827.07091794908 39293.255837619305 43664.697660073638 22574.440293118358 146695.66928440332 92645.526319205761 37555.810750678182 133188.20314897597 13209.168992608786 10596.591386854649 99372.400467202067 632714.6347514689 27322.755615249276 721378.98035782576 622204.36113336682 21190.350284308195
leaf_count=1005246 202876 68570 207005 194385 727126 270315 84818 387531 181507 845794 847782 156926 206315 1238319 792510 130034 197749 71092 538265 231909 105515 366675 34859 36637 311587 2184101 83196 2951949 2137179 68248
internal_value=0.0806895 0.0677317 0.0439164 0.0935345 0.138676 0.0728486 0.0640435 0.114211 0.0236826 0.0758556 0.0194046 0.0648499 0.0594123 0.117566 0.110967 0.0108058 0.0558982 -0.00447155 0.0067852 0.0958965 0.0653384 0.0936308 0.0618216 -0.0211993 0.062233 0.0593558 0.0035146 0.000997132 0.0585 -0.00580199
internal_weight=5.28738e+06 4.32166e+06 2.24739e+06 2.07427e+06 965720 924892 819194 524376 1.3225e+06 1.1951e+06 1.25859e+06 902654 842789 879176 796581 1.00971e+06 741332 66239.1 955881 494754 785075 361108 675093 57713.9 759133 661884 916588 889265 721577 742569
internal_count=16866020 14379442 8053796 6325646 2486578 3049939 2779624 1481332 5003857 3868523 4800981 3022729 2865803 2457123 2262738 3953199 2572619 268841 3771692 1470228 2622851 1093801 2303778 242952 2554281 2268919 3641658 3558462 2448766 3020197
is_linear=0
shrinkage=0.1


Tree=3
num_leaves=31
num_cat=0
split_feature=2 1 3 10 6 12 1 5 4 3 4 12 8 1 5 11 2 3 4 7 3 3 12 5 1 4 17 11 11 6
split_gain=305700 243124 154505 111921 65646.3 65130.4 48753.7 44141.5 32822.2 30579.6 30673.4 28815.3 27302.3 24590 24373.2 23081.7 22454.9 23685.4 21583.1 20038 19332.4 19064.7 23409.5 18691.8 16775.8 16549 15134.1 14447.6 14294.3 13933.2
threshold=142071.12293139726 0.95134220224512378 9429601.6666666698 0.9262442778674228 4105.916666666667 2618726.8977272729 0.97508953780487639 0.013563834379833608 4.0175568799172803 6657569.166666667 85.971559818763112 3051941.4448160538 0.043275608988990556 0.84848061479827186 0.038436790539909699 470652.81280700752 82111.757411358863 2234009.1666666674 71.444100473250828 0.013348799369577467 8411578.5000000019 6573254.8333333349 4112044.322222223 0.015396008161535022 0.95637260682397607 3.1283487361283826 0.10206531030434907 1137138.6638320598 1246325.1252464615 2140.3333333333335
decision_type=2 2 10 2 8 10 2 8 8 10 8 10 8 2 10 2 2 10 8 8 8 10 10 10 2 8 10 2 2 10
left_child=16 2 3 4 29 7 11 -6 -9 12 -11 25 -10 -5 -4 -14 -1 24 23 -17 -13 -15 -23 -7 -18 -3 -21 -25 -16 -2
right_child=1 6 14 13 5 18 -8 8 9 10 -12 20 15 21 28 19 17 -19 -20 26 -22 22 -24 27 -26 -27 -28 -29 -30 -31
leaf_value=0.16619958155965953 0.16631305796520043 0.16691861986315656 0.14865272201430099 0.15214270076557845 0.054314327690758057 0.090713695754089385 0.16145565237586079 0.094395838693330181 0.083819135595967029 -0.064577132149499714 0.12506243259299524 0.10554344959131917 0.043790984873698625 0.079613291185377244 0.12230649777814868 0.084447853278053708 0.095620360816780242 0.16317249233142114 0.096772086806255819 0.025923001087439026 0.16471376418314068 -0.019868477301532784 0.08910791465761618 0.062146936096311473 0.15682828134364316 0.076986488474960452 -0.0041817586011207736 0.029048875385729273 0.072181893968373836 0.086822531186339785
leaf_weight=201954.81830061972 30028.708533540368 21239.092966511846 122420.09667809308 42182.625850751996 295635.560400635 87419.311224848032 124095.54596021771 46556.882005989552 52349.574826955795 85619.440560355783 9472.7586429566145 404321.75580245256 174018.98235239089 594604.2926568538 99102.866005539894 30407.307255521417 210050.26005782187 113683.79532815516 103542.82745777071 210698.6695419997 63951.516349136829 45196.365431576967 34958.718953996897 206972.55725234747 56910.305016994476 559010.67512020469 804934.48446178436 363522.27876456082 133579.32045531273 82996.008629515767
leaf_count=407265 75762 51050 285417 96204 990456 264887 273630 145446 162057 394035 31011 1074129 607056 1813133 251003 94892 560989 244102 313274 783267 134434 188701 100377 669876 119754 1670292 3169242 1260625 383284 250370
internal_value=0.0708198 0.062564 0.0498567 0.0431145 0.0334159 0.0300073 0.102185 0.0191729 0.0118259 0.00901478 -0.0456859 0.0951707 0.0131028 0.0780723 0.112534 0.0100685 0.139247 0.124947 0.0543337 0.00445846 0.113624 0.0734418 0.0276603 0.0476548 0.108669 0.0802783 0.00206364 0.0410567 0.0935307 0.107942
internal_weight=5.41144e+06 4.82884e+06 3.65622e+06 3.30112e+06 2.58418e+06 2.47115e+06 1.17262e+06 1.70969e+06 1.41406e+06 1.3675e+06 95092.2 1.04852e+06 1.27241e+06 716942 355102 1.22006e+06 582599 380644 761457 1.04604e+06 468273 674759 80155.1 657914 266961 580250 1.01563e+06 570495 232682 113025
internal_count=16866020 15533910 12330375 11410671 9212256 8886124 3203535 6377462 5387006 5241560 425046 2929905 4816514 2198415 919704 4654457 1332110 924845 2508662 4047401 1208563 2102211 289078 2195388 680743 1721342 3952509 1930501 634287 326132
is_linear=0
shrinkage=0.1


Tree=4
num_leaves=31
num_cat=0
split_feature=2 12 10 7 2 1 8 7 11 11 8 3 2 4 1 10 5 4 11 5 4 3 3 12 3 3 6 7 10 8
split_gain=253345 155513 87120.2 59506.4 57511.5 58579.7 50730.3 44427.3 41629.3 39765.1 33427 31678.5 31545.3 29508.8 25067 21009.2 17996.3 16853.9 16628.9 15686.5 14909.2 14618.5 16988.1 14539.3 14418.6 14166.4 13798.2 12575.6 12269.8 12256
threshold=305720.56917719461 2529818.663043479 0.93187043010098225 0.013775349903732944 104411.09941952272 0.95713528478504528 0.031204888706103055 0.014217872699267962 463479.22757813992 1287536.7925646778 0.044503008296169176 2878360.333333334 1646168.508653837 2.8388859187446562 0.88790328819350284 0.88263683372929991 0.013563834379833608 12.224305747725081 4004451.0130963172 0.0081166648972193153 2.8388859187446562 9620862.833333334 6657569.166666667 2763951.6666666674 2597846.5000000005 9620862.833333334 5145.8333333333348 0.015383161824804105 0.92236948179168243 0.043275608988990556
decision_type=2 10 2 10 2 2 8 8 2 2 8 10 2 8 2 2 10 10 2 8 8 10 10 10 10 10 10 8 2 8
left_child=4 2 7 -3 -1 11 -5 -2 -9 12 -10 20 -8 -12 15 18 -11 -13 -15 -16 -6 22 29 -19 -7 -21 -18 -22 -28 -4
right_child=1 3 21 6 5 24 9 8 10 16 13 17 -14 14 19 -17 26 23 -20 25 27 -23 -24 -25 -26 -27 28 -29 -30 -31
leaf_value=0.1351193785407192 0.088412918698422216 0.13139430100814642 0.13229276918329499 0.15443820024653521 0.14010978737302468 0.10787586919033493 0.072259525036030572 0.064233167215540718 0.076442029625330518 0.10118004572963353 0.11148245719710415 0.1765517359585099 0.13272868382473893 -0.01981524236228846 0.066066917486526142 0.02951130889851783 0.10284920832381368 0.066043664208469355 0.079217042220722345 0.013668392883746123 0.12105888380953481 0.14213049627001481 -0.0033883372782015815 0.12551171872404063 0.15618765641851798 0.080551120653940433 0.033330226907969343 0.053582162140876216 0.06082299259265575 0.067933937090046956
leaf_weight=354355.56400299072 101001.85504153371 156484.08893467486 32087.827086031437 63657.741694688797 22817.88922342658 135378.04938645661 639714.32382401824 191910.31429164112 83691.106648012996 60925.414664551616 28958.631382808089 30426.211620822549 99719.477329805493 450933.60005521774 68964.830614462495 128793.57258379459 38949.067371025681 82908.244307994843 17617.944146588445 778476.12417007983 29312.781924322248 27933.321621149778 31374.561046808958 81553.480008527637 113625.13967442513 33011.830642059445 525444.23985742033 478191.98010647297 234900.44157254696 379961.91556932032
leaf_count=738783 291131 371922 78512 145841 56216 322839 1860438 621696 247648 164799 81434 65231 254677 1860252 213979 458966 104334 251327 54220 2839637 75257 60488 125831 195039 236446 86506 1715614 1477373 684340 1125244
internal_value=0.0625882 0.0504838 0.0335161 0.0724391 0.100621 0.0880734 0.0668926 0.0238934 0.0202372 0.0634087 0.0149285 0.0737047 0.0804143 0.0115118 0.0095528 -0.00625911 0.0487909 0.108182 -0.0160915 0.0202804 0.0610348 0.0719648 0.0675448 0.0955328 0.129922 0.0163892 0.0447976 0.0574795 0.0418238 0.0729458
internal_weight=5.50308e+06 4.17451e+06 2.35472e+06 1.81979e+06 1.32857e+06 974214 1.66331e+06 1.88336e+06 1.78236e+06 1.59965e+06 1.59045e+06 725211 739434 1.50676e+06 1.4778e+06 597345 860219 194888 468552 880453 530323 471358 443424 164462 249003 811488 799294 507505 760345 412050
internal_count=16866020 13447509 8145544 5301965 3418511 2679728 4930043 6755469 6464338 4784202 5842642 2120443 2115115 5594994 5513560 2373438 2669087 511597 1914472 3140122 1608846 1390075 1329587 446366 559285 2926143 2504288 1552630 2399954 1203756
is_linear=0
shrinkage=0.1


Tree=5
num_leaves=31
num_cat=0
split_feature=2 1 10 3 1 2 12 1 3 3 7 5 12 8 6 6 4 6 4 1 5 11 4 3 12 3 3 3 3 7
split_gain=203986 141192 75442.1 56908 63213.6 38073.9 40325.8 36105.5 29483.5 27968.8 24021 22387.3 21938.6 21878.5 23125.6 21504.7 18667.2 18055.8 18032.1 17885.8 16799.2 16725.7 16037.2 15100.2 16275.1 15162.2 14946.2 16391.3 14138 13948.2
threshold=241242.50256345261 0.92123425093909372 0.8887834705594716 8692516.6666666698 0.95713528478504528 86428.904132857555 1591460.3500000003 0.83388350320801807 6573254.8333333349 9807491.583333334 0.020284578263331934 0.075294149132616117 5169564.1348039228 0.026727754438136051 28167.833333333339 4105.916666666667 2.8388859187446562 3630.8333333333335 3.5934532418645895 0.97402057889780491 0.039588476923256406 4004451.0130963172 47.401179908639243 6657569.166666667 4683936.7500000009 6385456.0833333349 9955780.1666666698 689499.16666666674 2213271.666666667 0.011601184065226351
decision_type=2 2 2 10 2 2 10 2 10 10 8 10 10 8 10 8 10 8 8 2 10 2 8 10 10 10 10 8 10 8
left_child=5 2 10 4 8 -1 -7 -4 13 23 -2 12 -10 -3 15 -15 -8 -12 -17 22 -5 26 -6 25 -25 -9 27 -19 -18 -20
right_child=1 3 7 20 19 6 16 9 11 -11 17 -13 -14 14 -16 18 28 21 29 -21 -22 -23 -24 24 -26 -27 -28 -29 -30 -31
leaf_value=0.12975604559952431 0.05666138772350883 0.13313523996174709 0.1155399541558631 0.13131834008516516 0.06716532350140049 0.062578238316850152 0.17949168063791254 0.038817683993832119 -0.056557346339977603 0.095653660784979222 0.086987237125871156 0.074206477116327052 0.04526365742676005 0.097979957215989066 0.083819199620821225 0.11012543639242367 0.082335672544072563 0.025927050656486109 0.097698452688218695 0.11827741835981782 0.07990136618657899 0.077145022906173977 0.10946782574564771 -0.046294641273544629 0.05328428575061861 0.1470192423155133 0.047443811065265393 -0.0080061938571531262 0.11992689371064935 0.034244595702355357
leaf_weight=236793.65548549592 101645.86108787358 30595.544074818492 74004.155928865075 135973.58144137263 505512.41660985351 425060.87402932346 31950.960307121277 667758.48805597425 66429.292117550969 89081.675597757101 26696.125758975744 30367.922089278698 31052.745060727 65649.397989481688 154222.11854432523 34425.100233092904 212046.07213456929 174730.70230653882 35929.708753809333 111024.69956640899 119293.42030753195 30106.570184960961 108929.27822127938 42739.234652042389 26645.700037360191 13206.917530566454 66180.755426064134 768190.86605420709 189426.65408580005 966599.63785248995
leaf_count=473451 321391 70960 181816 294905 1390441 1181805 57872 2187322 281730 217307 75633 93902 90286 173116 443356 90780 546570 609889 91179 248316 305370 89278 269490 189329 78717 31816 196281 3047993 421146 3114573
internal_value=0.0555731 0.0461096 0.0270541 0.0626597 0.0573379 0.0942557 0.0844637 0.0485804 0.0450349 0.0426773 0.0102129 -0.000766579 -0.0241224 0.0495833 0.0475494 0.0424763 0.105927 0.00578347 0.0389623 0.0813392 0.10729 0.00369743 0.0746648 0.0363879 -0.00805363 0.0409162 0.00150612 -0.0017181 0.100072 0.0365187
internal_weight=5.57227e+06 4.47699e+06 2.08099e+06 2.396e+06 2.14074e+06 1.09528e+06 858485 913436 1.41527e+06 839432 1.16755e+06 127850 97482 1.28742e+06 1.25683e+06 1.1026e+06 433424 1.06591e+06 1.03695e+06 725466 255267 1.03921e+06 614442 750350 69384.9 680965 1.0091e+06 942922 401473 1.00253e+06
internal_count=16866020 14185176 7226772 6958404 6358129 2680844 2207393 2886307 4449882 2704491 4340465 465918 372016 3983964 3913004 3469648 1025588 4019074 3296532 1908247 600275 3943441 1659931 2487184 268046 2219138 3854163 3657882 967716 3205752
is_linear=0
shrinkage=0.1


Tree=6
num_leaves=31
num_cat=0
split_feature=2 1 3 10 1 8 6 12 3 4 3 3 1 4 4 3 2 4 3 4 1 10 5 3 10 8 3 5 3 12
split_gain=170388 131767 77982.5 57405.2 35611.6 35098.3 32160.9 27287.9 28173.9 29164.4 24256.1 23306.3 21469.5 20948.5 19888.2 35770.9 18824.7 18633.8 18503.2 27980.3 17916.5 16058.7 15574.9 15141.6 14753.8 14118.8 13897.3 13771.1 11870.3 12292.3
threshold=170309.72530518807 0.94392043522669489 9429601.6666666698 0.92311356734484995 0.96706623130828706 0.031204888706103055 3630.8333333333335 3290452.6750000003 4885649.666666667 51.100247843198815 8692516.6666666698 689499.16666666674 0.93893004138729996 49.232519665976682 15.685444562137649 5892215.333333334 67077.034030581475 4.2153656962745414 1006076.6666666669 8.4888744305695081 0.84550037505180442 0.90795024241730138 0.014081015838247926 3474121.5000000005 0.92349053695836514 0.02424762140107314 4885649.666666667 0.0081166648972193153 1396521.666666667 3817891.208333334
decision_type=2 2 10 2 2 8 8 10 8 8 10 10 2 8 10 10 2 10 10 10 2 2 10 10 2 8 10 10 10 10
left_child=12 2 3 5 10 -2 -7 8 9 11 13 -8 16 17 15 -10 -1 -3 -13 -20 -5 -18 -21 -24 -4 -19 -6 -27 -29 -30
right_child=1 4 24 20 26 6 7 -9 14 -11 -12 18 -14 -15 -16 -17 21 25 19 22 -22 -23 23 -25 -26 27 -28 28 29 -31
leaf_value=0.12597327506570855 0.10081681016368267 0.10545873981852755 0.06473946275415185 0.11333714123443062 0.083072153573763963 0.081962625653289212 0.032095395102565115 0.035965889710613229 -0.013455107455456333 0.056544743888924637 0.10237270679397757 -0.033420330757570886 0.11473747741953813 0.08268363883715063 -0.042665951642981759 0.13138245174597313 0.056802374882694601 0.12210962880645869 0.061500784176916061 0.039634485568200178 0.047701819010303848 0.099761469961268501 -0.012544513394389632 0.027077949017987237 0.11283587070732425 0.08184262075762086 0.12975698184707593 0.060859132057290981 0.019449019794298847 0.049616936761629649
leaf_weight=75334.059927240014 50765.70940002799 51220.826204299927 242307.22863230109 44633.404308825731 297981.52227005363 73112.644220158458 336753.42592178285 466081.1413603574 103554.43963971734 147523.5404061377 111490.94389684498 131164.89375403523 294794.47273428738 199973.96898889542 164215.54040086269 20413.009152650833 256907.52342018485 22161.05190692842 84551.785957738757 89616.222485020757 609709.3902439326 131584.45122674108 503403.49292887747 119304.77173753083 86563.981721535325 75787.640792429447 81124.33585549891 164208.96299055219 371262.26474700868 212300.23343208432
leaf_count=145450 133888 125587 640159 97265 719899 197175 1113846 1464299 415577 499415 249664 512979 620889 529129 713138 58112 671686 49366 275489 295532 1840914 306500 1958011 435292 187567 201199 167341 470444 1182062 588146
internal_value=0.0495583 0.0426797 0.0312147 0.0260569 0.066322 0.0185943 0.0167306 0.0145293 0.0086539 0.0144683 0.057933 0.00956055 0.0936358 0.0534162 -0.019841 0.0103945 0.0802242 0.0468909 0.00138345 0.00711211 0.0521789 0.0713529 0.000656259 -0.00495324 0.0773992 0.0433438 0.0930622 0.0412243 0.0371076 0.0304241
internal_weight=5.61981e+06 4.86119e+06 3.27367e+06 2.9448e+06 1.58751e+06 2.29046e+06 2.23969e+06 2.16658e+06 1.7005e+06 1.41232e+06 1.20841e+06 1.26479e+06 758621 1.09691e+06 288183 123967 463826 896941 928041 796876 654343 388492 712324 622708 328871 845720 379106 823559 747771 583562
internal_count=16866020 15121495 10838658 10010932 4282837 8072753 7938865 7741690 6277391 5090564 3395597 4591149 1744525 3145933 1186827 473689 1123636 2616804 3477303 2964324 1938179 978186 2688835 2393303 827726 2491217 887240 2441851 2240652 1770208
is_linear=0
shrinkage=0.1


Tree=7
num_leaves=31
num_cat=0
split_feature=2 1 3 10 8 7 5 12 1 3 4 14 5 4 1 11 4 3 4 2 8 5 6 8 1 3 3 4 3 3
split_gain=143593 111718 77059.6 58189.5 42824.1 35609.1 31776.6 31874.2 22371.1 19132.3 18233.2 17192.8 17155.3 16342.5 15533.9 14904.5 14870.2 20678.7 14073.4 14023.8 12842.7 12362.9 12086.4 13934.9 11999.9 11919.2 11908.4 12295.7 11782.4 15528.4
threshold=142071.12293139726 0.95637260682397607 9429601.6666666698 0.93145732991644736 0.053324576909763492 0.008420760189106721 0.010432989351189128 2029694.9545454548 0.97508953780487639 1762473.5833333337 71.444100473250828 0.019422323461491493 0.072179090682942565 8.0785556186252343 0.94392043522669489 979751.77747166983 8.911348266736141 6070915.666666667 4.2153656962745414 60548.130542734863 0.02424762140107314 0.0022628023323962806 24020.000000000004 0.031204888706103055 0.85150800850344355 1023220.8333333334 4951227.5000000009 49.835349583688249 3474121.5000000005 742890.75000000012
decision_type=2 2 10 2 8 8 8 10 2 10 8 8 10 10 2 2 10 10 10 2 10 10 10 8 2 10 10 10 10 10
left_child=14 2 3 4 20 -6 9 11 18 21 13 -8 -4 -9 19 -15 17 -13 -3 -1 -2 -7 23 -20 -5 -21 27 28 29 -18
right_child=1 8 12 24 5 6 7 10 -10 -11 -12 16 -14 15 -16 -17 26 -19 22 25 -22 -23 -24 -25 -26 -27 -28 -29 -30 -31
leaf_value=0.12552550404011573 0.11080695636177187 0.094598996641497027 0.088422911122120487 0.10779757905150272 0.10697090828545182 0.092809795466768166 0.029943942239633911 0.060440120618828169 0.10822625825584016 0.095750358128589869 0.058089728037844068 0.011370517439397231 0.044170675830360828 0.035459388406716377 0.11353271158614407 0.0069089947088197615 0.016243015895481949 0.16289232829574021 0.1084745176863709 0.055311616477193973 0.050856332931776896 0.025406466251786428 0.092060375042438136 0.048907015740057021 0.050018627907082003 0.092783017536539239 -0.038590019706848444 0.034209042091007329 0.023583489917373197 -0.024305116596981764
leaf_weight=56411.394218578935 43886.193558126688 124107.26464539766 262943.70256404579 38011.74827902019 43909.803213402629 31104.913008823991 186680.64216627181 90023.23309160769 129678.02490635216 62468.192118823528 143966.9032728672 298175.54930765927 131375.0748860091 263653.90099324286 198035.08198948205 596610.76137720048 122534.57090777159 9287.3667808920145 42179.879761710763 193604.70040884614 192338.9843378365 217417.57276123762 91072.375968918204 569668.22024300694 661091.8291490525 151171.04915241897 122519.71528546512 72456.130006626248 92842.428386375308 412019.15325625241
leaf_count=106775 104809 286437 611711 82708 108659 84065 633619 265644 273630 167715 424281 1062364 353321 827211 400457 2041279 418645 22111 92363 485217 575557 691039 218934 1538722 1904491 339661 534040 254111 333394 1623050
internal_value=0.0443319 0.0388421 0.0316546 0.0271772 0.021126 0.0176354 0.0161941 0.0123133 0.069609 0.0462779 0.0249256 0.00183023 0.0736794 0.0199013 0.0906162 0.0156591 -0.00281495 0.0159475 0.0635538 0.079304 0.061994 0.0338426 0.0580725 0.0530135 0.0531602 0.0717414 -0.00982971 -0.00479478 -0.00929922 -0.0150104
internal_weight=5.65125e+06 5.05202e+06 4.09532e+06 3.701e+06 3.0019e+06 2.76567e+06 2.72176e+06 2.41077e+06 956706 310991 1.09425e+06 1.31652e+06 394319 950288 599222 860265 1.12983e+06 307463 827028 401187 236225 248522 702920 611848 699104 344776 822372 699852 627396 534554
internal_count=16866020 15533910 13123824 12158792 10171593 9491227 9382568 8439749 2410086 942819 3558415 4881334 965032 3134134 1332110 2868490 4247715 1084475 2136456 931653 680366 775104 1850019 1631085 1987199 824878 3163240 2629200 2375089 2041695
is_linear=0
shrinkage=0.1


Tree=8
num_leaves=31
num_cat=0
split_feature=2 12 10 11 1 2 6 7 4 7 3 8 11 8 5 2 2 1 10 6 4 6 2 3 3 12 3 4 4 7
split_gain=123294 84637.5 51160.7 37033 34575.4 34322.6 31575.2 29823.8 27613.6 26211.7 25666.3 23933.3 22600.9 21669.8 17739.7 17304.7 16546.9 15537.3 16488.1 12587.8 11778.8 10993.4 10578.7 10386.8 12067.9 10175.4 9613.7 9357.9 9840.29 9857.62
threshold=305720.56917719461 3364071.5000000005 0.93961111831495103 434461.60299278615 0.96129507744025011 95770.412344464537 2765.7500000000005 0.012905729489668987 2.8388859187446562 0.012905729489668987 2878360.333333334 0.044503008296169176 1480514.0801585454 0.044503008296169176 0.015935185888316893 1744594.7151782955 3260818.1591948983 0.88620545167501652 0.87311433020105145 28167.833333333339 13.025463196389152 3014.2500000000005 1556471.8292016762 1458090.3333333337 9620862.833333334 2816455.2152173915 1762473.5833333337 2.217756757525565 51.798543151359162 0.072798859225083098
decision_type=2 10 2 2 2 2 8 10 8 8 10 8 2 8 8 2 2 2 2 10 10 8 2 8 10 10 10 8 10 10
left_child=4 2 3 22 5 -1 -5 -3 -8 -10 21 -9 15 -11 26 -13 17 18 -16 23 -12 -7 -2 -19 -25 -22 -15 -23 29 -29
right_child=1 7 -4 6 -6 10 8 11 9 13 20 12 -14 14 16 -17 -18 19 -20 -21 25 27 -24 24 -26 -27 -28 28 -30 -31
leaf_value=0.090956788364044375 0.049677468278830128 0.10179375032109116 0.053919789892243358 0.093348779248461355 0.098816010410269925 0.10119806390633812 0.088210781609506073 0.094774500345881946 0.059089741207502433 0.0485851047105752 0.12700145803146126 0.049403361161642206 0.027992301407939998 0.014073714505126483 -0.02717939424335062 0.096458340128690506 0.041960245322688564 0.018677634082335259 0.010981408425263755 0.036445022483921639 0.043964676800373692 0.11215071583460673 0.13507980338872372 -0.0090023234372906061 0.04895500768369887 0.090311195928259841 0.050517574748881112 0.023402499308214478 0.098458387129823244 0.055055620237715167
leaf_weight=248408.02877928317 202246.78000892699 110112.28835369647 425286.62186615169 47485.059318825603 259995.88450600207 26466.816242679954 45317.462175518274 98955.969913944602 101063.4076025486 117951.19132976234 39480.872328191996 563516.71069741249 519513.93883390725 237199.71725136042 382985.81477953494 90739.038200542331 89396.627149105072 243606.30077710748 160745.29658463597 113590.16509918869 95477.290752872825 15444.369791194797 15624.662197858095 605697.31025721133 38191.731786027551 94020.621713250875 104173.44368030131 428582.86588466167 22270.555823579431 127703.44745698571
leaf_count=527272 614985 242987 1162316 116732 550026 61241 116187 229255 273815 328196 82297 1538331 1524222 778773 1615100 220354 291833 817525 573220 372605 273882 34137 39116 2185857 95916 214130 310184 1263236 55250 357040
internal_value=0.0397463 0.0314736 0.0218512 0.0164074 0.0660256 0.0582601 0.0126551 0.0518657 0.0109444 0.00934891 0.0486985 0.047546 0.0435644 0.00694772 0.00446178 0.0559294 0.000130809 -0.00228981 -0.0158978 0.00510124 0.0773123 0.0381388 0.0558021 0.00108956 -0.00556463 0.0669598 0.0251949 0.0353291 0.0332784 0.0306689
internal_weight=5.67125e+06 4.3134e+06 2.93056e+06 2.50527e+06 1.35785e+06 1.09785e+06 2.2874e+06 1.38284e+06 2.23992e+06 2.1946e+06 849447 1.27273e+06 1.17377e+06 2.09354e+06 1.97559e+06 654256 1.63421e+06 1.54482e+06 543731 1.00109e+06 228979 620468 217871 887495 643889 189498 341373 594001 578557 556286
internal_count=16866020 13447509 9692360 8530044 3418511 2868485 7875943 3755149 7759211 7643024 2341213 3512162 3282907 7369209 7041013 1758685 5952056 5660223 2188320 3471903 570309 1770904 654101 3099298 2281773 488012 1088957 1709663 1675526 1620276
is_linear=0
shrinkage=0.1


Tree=9
num_leaves=31
num_cat=0
split_feature=2 12 7 11 6 2 10 2 5 11 8 5 17 16 3 10 14 8 5 4 4 13 1 7 4 13 3 3 0 2
split_gain=104144 81197.9 37945.5 34706.6 33850.4 28666.1 28201.5 26633.9 22702.7 19289.7 18147.2 16580.9 16351.7 14782 13358.1 12996 12758.8 11755.1 11464.9 11198.8 10911.2 9972.42 9842.24 9385.33 8675.79 8529.75 8472.38 8468.27 8392.01 8210.46
threshold=142071.12293139726 2013030.5500000003 0.013348799369577467 1159385.7605041878 3014.2500000000005 519750.86071607709 0.93814939407390729 1585629.6579678657 0.0053505932791480691 365966.34041596117 0.044503008296169176 0.01992833639365563 0.098929185866132016 0.031032731990248984 2705525.333333334 0.89137327376460351 0.019089851984590577 0.070520006991155085 0.013818745939216502 6.0738865380308527 49.835349583688249 27.297748348581969 0.89739255435067944 0.0057969737300723754 4.0175568799172803 9.6219982329174218 8692516.6666666698 1477863.5000000002 0.045156393353692446 82111.757411358863
decision_type=2 10 10 2 8 2 2 2 8 2 8 10 8 8 10 2 8 10 10 8 8 10 2 10 10 8 10 10 2 2
left_child=15 4 23 7 -2 -5 8 14 -6 -10 -7 -12 -11 -14 24 22 -15 -18 -16 -13 26 25 -1 -3 -4 -19 27 -21 -26 -17
right_child=1 2 3 5 6 10 -8 -9 9 12 11 19 13 16 18 29 17 21 -20 20 -22 -23 -24 -25 28 -27 -28 -29 -30 -31
leaf_value=0.038013755914762359 0.084858284977977913 0.13183223382831238 0.080808389851114298 0.070850249092177728 0.052498063670824414 0.065512180212458818 0.042791119786955996 0.097744935595002538 0.036644355624374951 0.027953027602052434 0.050168536626980842 0.071744397106497368 0.033576202121592576 0.024915155279768827 0.10179146840481867 0.10949670517657398 0.01348288494551338 0.01035447020298056 0.053142123880705855 0.029844646946431894 0.028638432002449726 0.013070352914094446 0.079783480294583903 0.07450335483407669 0.091856912213457431 -0.020434220276894566 0.034781921904590625 -0.0043613701650958526 0.027544084585725714 0.077051862598304502
leaf_weight=125593.9287546128 72636.230388149619 34124.312089443207 37722.993100225925 145418.91284328699 123967.64922526479 96568.428354814649 326003.73034386337 116883.15501177311 212759.45136831701 254743.62120677531 160154.54861973226 34093.514546334743 122548.34047816694 147078.60562436283 53777.420700982213 113797.68256849051 235276.63212649524 104452.18423049152 488190.1788662225 86143.635936900973 313172.40801179409 137995.55756440759 102410.79859669507 175012.84424306452 21361.471693411469 649509.98174110055 86728.856012016535 452821.24459075928 404302.82109330595 247921.13182792068
leaf_count=317466 175524 68358 93756 370777 350084 241562 893367 284157 641054 835565 446556 91257 397718 480613 120661 225483 778314 368506 1314512 272132 925727 491403 229002 415792 46650 2483197 235165 1511882 1199621 560159
internal_value=0.0356896 0.0310834 0.0429408 0.0395142 0.0176389 0.0288644 0.0155292 0.0525637 0.0110594 0.00830399 0.0238993 0.0203529 0.00465319 0.000404027 0.0473109 0.0754731 -0.00278608 -0.00640047 0.0579694 0.015445 0.0134006 -0.0116452 0.0567751 0.0838575 0.0348449 -0.0161688 0.00577375 0.00110583 0.0307715 0.0872591
internal_weight=5.68317e+06 5.09345e+06 2.70648e+06 2.49734e+06 2.38697e+06 1.3751e+06 2.31434e+06 1.12224e+06 1.98833e+06 1.86436e+06 1.22968e+06 1.13311e+06 1.6516e+06 1.39686e+06 1.00535e+06 589724 1.27431e+06 1.12723e+06 541968 972960 938866 891958 228005 209137 463387 753962 625694 538965 425664 361719
internal_count=16866020 15533910 7638565 7154415 7895345 4095058 7719821 3059357 6826454 6476370 3724281 3482719 5835316 4999751 2775200 1332110 4602033 4121420 1435173 3036163 2944906 3343106 546468 484150 1340027 2851703 2019179 1784014 1246271 785642
is_linear=0
shrinkage=0.1


Tree=10
num_leaves=31
num_cat=0
split_feature=2 12 6 11 1 2 2 1 8 3 10 6 7 11 5 4 3 3 5 10 6 3 3 5 1 8 4 8 1 4
split_gain=87323.5 59943.7 37032.4 31643.8 28802.2 28490.1 27586.1 23754.4 20406.6 19901.2 18594.1 16854.8 16480 15841.4 14810.9 14228.9 14512.3 22989.2 12792.4 12594.8 11800.4 11430.3 12177.1 13797 10318.5 9604.45 9450.96 9230.69 8958.84 8956.72
threshold=305720.56917719461 3560023.0000000005 5145.8333333333348 612581.16595291707 0.95713528478504528 753039.95970687584 82111.757411358863 0.90985484542076089 0.037844227741582699 2878360.333333334 0.87899014655935248 25357.583333333339 0.014996726309606081 4004451.0130963172 0.011494512825792559 4.9331177466792209 8692516.6666666698 6573254.8333333349 0.092319883844451014 0.92013674795760636 1764.1666666666667 6070915.666666667 1436940.3333333337 0.013304894714678531 0.84996015447003004 0.026727754438136051 12.492581297901049 0.044503008296169176 0.97620453178320121 2.8388859187446562
decision_type=2 10 8 2 2 2 2 2 8 10 2 10 10 2 10 8 10 10 10 2 10 10 8 8 2 8 10 8 2 8
left_child=4 2 20 5 6 -4 -1 10 -3 25 13 15 -10 -5 -14 -9 17 21 -19 -16 -2 22 -17 -24 -12 -8 -11 -25 -6 -27
right_child=1 8 3 7 28 -7 9 11 12 26 24 -13 14 -15 19 16 -18 18 -20 -21 -22 -23 23 27 -26 29 -28 -29 -30 -31
leaf_value=0.084242337092609296 0.11549521457631623 0.092211260892251568 0.020007471026101759 -0.017961581027277743 0.071962318880473872 0.068923507065631093 0.105835591246859 0.05895263279025037 0.074538577913826648 0.11307377354898727 0.051325557632566993 0.04631981201791685 0.081056230164663873 0.056139669030903783 0.024004814037838298 0.027176846036267407 0.053758074145071083 -0.069635857805478804 0.055860585878006547 0.046667221503729643 0.046403436297266211 0.078460778203563855 0.043850178267257539 0.041208165370901842 0.0069896296037749456 0.084714889923532599 0.056312372329728279 -0.0079179230746649048 0.11286223239996346 0.026120299305992974
leaf_weight=161897.31224611402 27714.236379101872 79689.482934042811 369327.50146998465 553970.56880673766 241093.2486294359 175715.38417817652 16524.084693148732 64154.022908762097 123886.48564991355 34798.614879921079 62287.713974490762 179924.28292970359 68535.121754392982 30434.679478675127 615302.50042100251 265647.23800368607 71767.153799116611 54258.214735239744 9552.5145207345486 407739.78225435317 228782.33168369532 24635.810601741076 67898.411229386926 41521.407066702843 333842.11435551941 27248.931343212724 186794.37445539236 485168.02235534787 68850.056093722582 612098.2341748625
leaf_count=346183 59763 174700 1166390 2234693 545491 498159 36425 170929 286676 72201 179663 531699 163862 85556 1789023 813440 182331 233615 32191 1064488 634555 66874 187445 109999 1151252 62200 479023 1630206 135481 1741507
internal_value=0.0320729 0.0251675 0.0175064 0.0141635 0.054293 0.0357774 0.0463147 0.00891624 0.0431888 0.0393168 -0.00276503 0.0179741 0.0399747 -0.0141025 0.036052 0.0132718 0.0103999 0.00711993 -0.0508489 0.0330371 0.0538687 0.0113002 0.00937687 0.00142427 0.013961 0.030563 0.0652261 -0.00404508 0.0810477 0.0286176
internal_weight=5.69106e+06 4.34175e+06 3.0466e+06 2.79011e+06 1.3493e+06 545043 1.03936e+06 2.24506e+06 1.29515e+06 877464 980535 1.26453e+06 1.21546e+06 584405 1.09158e+06 1.0846e+06 1.02045e+06 948682 63810.7 1.02304e+06 256497 884871 860235 594588 396130 655871 221593 526689 309943 639347
internal_count=16866020 13447509 9968760 9274442 3418511 1664549 2737539 7609893 3478749 2391356 3651164 3958729 3304049 2320249 3017373 3427030 3256101 3073770 265806 2853511 694318 2807964 2741090 1927650 1330915 1840132 551224 1740205 680972 1803707
is_linear=0
shrinkage=0.1


Tree=11
num_leaves=31
num_cat=0
split_feature=2 1 10 1 3 7 3 4 4 3 8 1 10 1 1 7 3 3 2 3 6 12 3 12 6 4 16 11 3 3
split_gain=77389 66785.8 38542.3 25822.4 22804.5 22084.1 17971.4 16773.8 17573.3 17532.9 16393.6 16031.8 14404.8 17728.7 16110.6 13365.3 12694 11907.6 10937.6 15664.9 10678.5 10232.2 10024.9 12658.5 9978.22 9902.59 9767.07 9736.84 9410.88 11968.2
threshold=133661.0954661826 0.93893004138729996 0.91790905654730592 0.9708310913441206 8692516.6666666698 0.018488503836460366 9229003.6666666698 7.6583847576791113 45.343337549808943 5421531.5000000009 0.031204888706103055 0.84068926348959494 0.85370834502642789 0.88073781827919084 0.79518547555345231 0.086349395657954367 648328.41666666686 6657569.166666667 60548.130542734863 2194397.5000000005 23211.166666666668 4112044.322222223 6492226.8333333349 5036616.8750000009 25357.583333333339 81.873721495208983 0.057264074337457345 4004451.0130963172 9620862.833333334 6657569.166666667
decision_type=2 2 2 2 10 8 10 10 10 10 8 2 2 2 2 10 10 10 2 10 10 10 10 10 10 8 8 2 10 10
left_child=18 2 5 4 7 -2 11 9 16 -3 -7 -4 13 27 -14 28 -9 -13 -1 -20 -5 25 24 -24 -18 -19 -17 -12 29 -16
right_child=1 3 6 20 -6 10 -8 8 -10 -11 12 17 14 -15 15 26 22 21 19 -21 -22 -23 23 -25 -26 -27 -28 -29 -30 -31
leaf_value=0.1024603130385276 0.041256149583993984 0.041915946222789491 0.085570420544963444 0.062153834547659853 0.071219204831563021 0.065015171500888355 0.075385541057507277 0.059385205323518979 0.053626971089238855 0.10652146544019386 -0.016235756094550882 0.029744476390722353 0.094064429527663029 0.027565807546635658 0.0053072324955065016 0.07004074290046941 0.017243982868150685 -0.067223552218151392 0.048744985232033529 0.090867542074986651 0.12681497856576945 0.030128746917118272 -0.04041467048013573 0.030076780991789218 0.049553621928959415 0.13851451047118915 0.0209467278677955 0.049988982149336475 0.032824052293510417 -0.036427957041312908
leaf_weight=69316.569234073162 203948.78744964302 272906.51346720755 47655.811710447073 223162.10586214066 159957.33236218989 47386.796847969294 96752.09259749949 79598.421126902103 196783.91238158941 49648.367114320397 554856.75025318563 617080.67794090509 23160.482920840383 127845.53147803247 952306.49780791998 50210.360089659691 738305.04452946782 32161.543612003326 335732.18833485246 119787.4712600559 28840.86936122179 26663.74738329649 61711.99255181849 43383.543583571911 109800.1332450062 2523.0078970640898 210047.71719175577 23126.60436411202 111998.04667763412 74053.464654058218
leaf_count=142359 580487 728363 104501 518826 363727 119125 217922 206027 515172 108694 2138347 1775264 63108 416847 3243785 148748 2140718 142305 808509 252600 55128 74081 223604 114964 289839 7349 707682 65539 295829 296571
internal_value=0.0288671 0.0251501 0.0162447 0.0396674 0.0352683 0.00979201 0.0349002 0.0315634 0.026239 0.0518602 0.00684162 0.0295055 0.00554596 -0.00613219 0.0113435 0.00997365 0.0210206 0.0255672 0.0654533 0.0598219 0.0695541 -0.0164502 0.0178169 -0.0113157 0.021427 -0.0522578 0.0304182 -0.0135859 0.0052995 0.00229597
internal_weight=5.69071e+06 5.16588e+06 3.20178e+06 1.9641e+06 1.7121e+06 2.37894e+06 822837 1.55214e+06 1.22958e+06 322555 2.17499e+06 726085 2.12761e+06 705829 1.42178e+06 1.39862e+06 1.0328e+06 678429 524836 455520 252003 61348.3 953201 105096 848105 34684.6 260258 577983 1.13836e+06 1.02636e+06
internal_count=16866020 15662552 10397490 5265062 4691108 8076068 2321422 4327381 3490324 837057 7495581 2103500 7376456 2620733 4755723 4692615 2975152 1998999 1203468 1061109 573954 223735 2769125 338568 2430557 149654 856430 2203886 3836185 3540356
is_linear=0
shrinkage=0.1


Tree=12
num_leaves=31
num_cat=0
split_feature=1 2 3 4 8 4 3 12 4 7 10 1 5 3 2 10 1 6 2 1 2 4 8 6 3 7 12 7 3 5
split_gain=67946.9 48887.2 39665.7 31725.5 27969.7 24485 24076.5 33566.2 28343.4 21984.8 20698 19679.3 15602.4 14603.3 14117.3 13460.3 16599.8 15428.1 13143.5 12608.5 12200.6 12191.3 11461.9 10691.1 10630.8 10514.3 10186.9 9825.35 9714.71 9694.86
threshold=0.95637260682397607 170309.72530518807 9620862.833333334 3.3642235124364324 0.054354990495377335 71.444100473250828 6657569.166666667 4958485.3928571437 16.690167750485891 0.0091367871921412738 0.94277220902079795 0.97620453178320121 0.0073084762197914771 8065790.5000000009 3648447.3133633984 0.85370834502642789 0.88790328819350284 28167.833333333339 129598.74490352171 0.82615766473107921 82111.757411358863 31.589313634594152 0.020948750528547912 2484.5000000000005 3513054.6666666674 0.008420760189106721 2991524.9833333339 0.068813038712415134 10056806.000000002 0.082549945471475455
decision_type=2 2 10 8 8 10 10 10 10 8 2 2 8 10 2 2 2 10 2 2 2 8 10 8 10 8 10 10 10 10
left_child=1 20 3 -3 22 6 9 8 29 -6 12 18 -11 -7 15 16 -14 19 -2 -17 -1 28 -5 -21 -22 -20 -27 -25 -4 -8
right_child=11 2 21 4 5 13 7 -9 -10 10 -12 -13 14 -15 -16 17 -18 -19 25 23 24 -23 -24 27 -26 26 -28 -29 -30 -31
leaf_value=0.072074769022172927 0.083138482060026664 0.068686414309223426 0.11200975468354056 0.090910154747112851 0.074810621626527615 0.041912433469075056 0.0088850373500195031 0.026837060878688476 -0.063293706446664544 0.034341113887868605 0.035964898371720837 0.086461888051353908 -0.019613655774508527 0.19147364751109949 0.046873492936228167 0.055176194882841839 0.028074897198181334 0.030418236870454519 0.10154949291105811 0.067893745473655162 0.032255017993839487 0.034806529274174922 0.033698862003842492 -0.0042396681307251393 0.075319917289858249 0.028257717555738755 0.050379653155300387 0.014798419983017215 0.053729812314473796 0.13922058449892902
leaf_weight=153998.15503156185 78156.170912712812 102211.0791516006 42851.984057337046 40492.581539601088 51910.623771056533 145874.33972460032 19642.55744408071 96750.236266687512 151298.15853382647 184897.49755807221 260650.97869095206 122512.97306703031 426805.83007654548 6834.359063565731 74948.978416487575 45268.640715256333 88049.905577868223 241208.93127149343 27166.181897863746 23928.531186237931 355133.28645740449 233944.28474065661 259020.93596667051 1088506.0264078677 68354.94954328239 456809.94903492928 382424.00858810544 360981.71238599718 86007.892134383321 8044.383210003376
leaf_count=344454 168807 259358 87055 90643 123286 427902 66501 265958 665906 537122 704156 262191 1709065 17846 221252 130785 286158 738108 57044 58016 918765 602273 739640 3648019 152268 1234439 931015 1192158 205576 20254
internal_value=0.0260113 0.0207557 0.0168656 0.0137533 0.0121828 0.0095082 0.00759633 -0.0206185 -0.0462706 0.0103288 0.00913133 0.0487541 0.00637184 0.0486059 0.00417094 0.00276396 -0.011458 0.0069246 0.0438632 0.00319316 0.0479712 0.0484113 0.0414335 0.00159605 0.0392061 0.0403203 0.0383383 0.000501594 0.0731106 0.0467538
internal_weight=5.68469e+06 4.61762e+06 4.04013e+06 3.67733e+06 3.57512e+06 3.2756e+06 3.12289e+06 275735 178985 2.84716e+06 2.79525e+06 1.06707e+06 2.5346e+06 152709 2.3497e+06 2.27475e+06 514856 1.75989e+06 944556 1.51868e+06 577486 362804 299514 1.47342e+06 423488 866400 839234 1.44949e+06 128860 27686.9
internal_count=16866020 14212524 12797037 11902133 11642775 10812492 10366744 1018619 752661 9348125 9224839 2653496 8520683 445748 7983561 7762309 1995223 5767086 2391305 5028978 1415487 894904 830283 4898193 1071033 2222498 2165454 4840177 292631 86755
is_linear=0
shrinkage=0.1


Tree=13
num_leaves=31
num_cat=0
split_feature=2 7 8 12 11 11 12 2 5 17 6 7 2 14 16 4 4 13 4 3 3 4 11 13 3 2 3 3 5 6
split_gain=56299.9 44773.9 37182.3 33334.6 25060.6 21724.3 20349.6 17495.5 17491.4 14843.2 13913.5 12714.1 12456.5 11622.5 11717 10733.3 10283.3 9949.37 9231.01 10810.1 9017.39 8957.4 8680.97 8126.04 7498.32 7332.46 7163.47 6882.51 6875.15 6362.73
threshold=275243.5300715146 0.013775349903732944 0.031204888706103055 1997078.2500000002 778324.00730752584 349903.19567549083 1577219.6500000001 82111.757411358863 0.014081015838247926 0.10145956754933445 5145.8333333333348 0.0076190625568547951 793803.44531836838 0.02219553068802569 0.033506250520967812 3.1283487361283826 5.4568199864978295 24.980568959643744 49.232519665976682 8836373.1666666698 2194397.5000000005 1.8449115112680607 1782794.4557462258 9.7502391305065697 3933349.333333334 112866.5629884056 706934.83333333337 6070915.666666667 0.0047685622103140627 27515.000000000004
decision_type=2 8 8 10 2 2 10 2 10 8 10 10 2 8 8 10 8 8 8 10 10 10 2 10 8 2 10 8 8 10
left_child=6 11 -3 5 12 -4 7 -1 -6 -7 -10 -2 -5 -11 -15 -8 -12 21 19 26 -17 -16 -20 -23 -19 -22 -18 -26 -9 -28
right_child=1 2 3 4 8 9 15 28 10 13 16 -13 -14 14 17 20 18 24 22 -21 25 23 -24 -25 27 -27 29 -29 -30 -31
leaf_value=0.066085641443976648 0.088114686063762701 0.067986165092041237 0.0405053907062079 0.030523682134382803 0.046612362943133978 0.020136474566308731 0.1054939534836335 0.050125889762336256 0.052494215616182872 0.015586521800715292 0.056682352110440683 0.042582203889042686 0.065271410972580338 0.019489956728905154 0.083168768474486343 0.04077103057839794 0.038095227636541551 0.01997303861979844 0.037896447135512656 0.031860605246489732 0.10178233515348278 0.0038739155442941171 0.0087766191475171784 -0.024473926726939134 -0.058004312492703894 0.058086847336970615 -0.0059262734374787998 -0.0016903070610932347 0.01748908133149615 0.015284573335817229
leaf_weight=111139.81003949046 84991.868550494313 131134.42687477171 149773.40320751071 274822.6752692461 177532.86784760654 321172.14432431757 40967.176832690835 75748.631186157465 86432.131543561816 253926.33987006545 48134.149962678552 220241.6085460484 165173.75095525384 135369.95962820947 8605.5293687433004 298019.61952528358 48495.124444559216 143836.63983798027 191618.94233880937 127326.90158960223 47963.661369219422 122727.76176990569 219809.69125944376 574353.63597172499 26916.836466982961 192683.73683719337 666399.77165083587 112036.13537485898 436421.00767700374 179524.86265948415
leaf_count=255348 188739 306389 431188 765759 467633 1023033 84227 188615 222612 812586 124548 567333 421366 438554 21041 759310 143855 485863 534442 332021 98829 423771 651505 2177981 105227 461546 2163008 428908 1226687 554096
internal_value=0.0234591 0.0182915 0.0155823 0.0138788 0.0222399 0.0039956 0.0426628 0.0301204 0.0168629 0.000777014 0.0134941 0.0552607 0.0435679 -0.00373586 -0.00810164 0.0561502 0.0112185 -0.0118803 0.00969156 0.00459883 0.0523975 -0.0182312 0.0223389 -0.019483 0.00396827 0.0667958 0.000717925 -0.012599 0.022316 -0.00142484
internal_weight=5.6733e+06 4.47036e+06 4.16512e+06 4.03399e+06 2.18527e+06 1.84872e+06 1.20294e+06 623309 1.74527e+06 1.69894e+06 1.56774e+06 305233 439996 1.37777e+06 1.12385e+06 579634 1.48131e+06 988477 1.43318e+06 1.02175e+06 538667 705687 411429 697081 282790 240647 894420 138953 512170 845925
internal_count=16866020 13791458 13035386 12728997 6380845 6348152 3074562 1670650 5193720 5916964 4726087 756072 1187125 4893931 4081345 1403912 4503475 3642791 4378927 3192980 1319685 2622793 1185947 2601752 1019998 560375 2860959 534135 1415302 2717104
is_linear=0
shrinkage=0.1


Tree=14
num_leaves=31
num_cat=0
split_feature=1 6 10 5 3 4 4 3 3 12 3 3 5 2 2 1 3 5 4 11 3 3 3 3 4 4 13 3 6 0
split_gain=53028.6 39103.6 33871.5 27360.3 20973.9 20013.4 23724.4 22221.8 17713 29169.1 15869.3 20741 23622.4 19147.3 17117 15686.3 14688.4 13592.8 12153.7 11759 11704.8 10681.6 11849.6 30905.7 25026.2 13978.6 10957.7 10584 10468.1 10907.4
threshold=0.95756114938210912 3014.2500000000005 0.93446977397265518 0.0047685622103140627 9807491.583333334 51.798543151359162 4.9331177466792209 3980992.3333333335 6657569.166666667 4266036.5073529417 2908084.8333333335 1583247.666666667 0.021025753024615051 489484.64304463187 1542772.9515190439 0.97620453178320121 9229003.6666666698 0.023833639539294953 14.729365860897925 739684.07594844338 6573254.8333333349 95743.000000000015 1023220.8333333334 706934.83333333337 26.036762305904009 25.806945219577582 27.69083734545924 1785376.4166666667 2484.5000000000005 0.088389603177450246
decision_type=2 8 2 8 10 8 10 8 10 10 10 10 10 2 2 2 10 10 10 2 10 10 10 10 10 10 10 10 8 2
left_child=1 -1 3 -3 5 6 -5 17 10 18 11 21 27 -12 -14 28 20 -7 -10 -15 -4 -8 23 -23 -24 -25 -26 -13 -2 -30
right_child=15 2 16 4 -6 7 8 -9 9 -11 13 12 14 19 -16 -17 -18 -19 -20 -21 -22 22 24 25 26 -27 -28 -29 29 -31
leaf_value=0.071354599812395045 0.10113887038408226 0.048161986264456315 0.03436743508100825 0.03891145597535331 0.034983606071538324 0.09506536757427278 0.06460510356979933 0.0055476458410679448 0.048711732212305708 0.021419647771380199 0.045538256233433369 -0.037327895922052823 -0.040990925545474621 0.039639034359929798 9.1376692502916827e-05 0.076432957095780407 0.075634001042565235 0.034518053129563964 -0.065730484214710755 4.0873393975053373e-05 -0.0082561050957819741 0.011864092341165346 0.033954848720368129 -0.047963789369028537 -0.062256527264758402 0.02241227925298207 0.015708449093263934 0.029918114718112274 0.032740833695011989 0.079766860319933977
leaf_weight=127448.25971719623 25179.788826063275 191788.60634666681 603439.08621887863 176275.72877594829 294372.14008700848 43753.32373996079 31058.306673720479 324416.1797105819 10078.289503097534 76687.250976830721 167396.9974245131 28743.544989138842 313351.32850047946 90322.97700253129 149951.21379378438 118367.76885925233 78054.853557258844 243033.96649934351 117118.79833100736 441846.74082300067 72127.005834072828 431495.80973817408 272398.61610473692 163970.24778929353 45261.924979090691 34091.83296635747 29958.928969562054 126027.43095678091 784167.88835985959 52633.050121501088
leaf_count=297845 52290 498807 1601963 486506 746792 108093 83839 1096185 30649 215842 464199 99995 1166823 275592 524613 262191 172462 721963 527809 1510170 240762 1332255 854684 602102 176910 109795 95459 370334 2018925 120166
internal_value=0.0211482 0.016722 0.0151941 0.0113564 0.00940195 0.00713183 0.00344036 0.0234754 0.00096871 -0.0272936 0.00344616 -0.00197134 -0.016395 0.0160404 -0.0276943 0.0422978 0.0345622 0.0437554 -0.0566628 0.00676171 0.0298167 0.0068707 0.00503569 -0.00314705 0.0198551 -0.0358502 -0.0312047 0.0174294 0.0376103 0.0356987
internal_weight=5.66482e+06 4.68447e+06 4.55702e+06 3.8034e+06 3.61161e+06 3.31724e+06 2.70604e+06 611203 2.52976e+06 203884 2.32588e+06 1.62631e+06 618074 699567 463303 980348 753621 286787 127197 532170 675566 1.00824e+06 977177 629558 347619 198062 75220.9 154771 861981 836801
internal_count=16866020 14412448 14114603 12099416 11600609 10853817 8927576 1926241 8441070 774300 7666770 5416809 2161765 2249961 1691436 2453572 2015187 830056 558458 1785762 1842725 3255044 3171205 2044152 1127053 711897 272369 470329 2191381 2139091
is_linear=0
shrinkage=0.1


Tree=15
num_leaves=31
num_cat=0
split_feature=2 7 10 12 4 6 8 5 14 7 17 13 3 11 2 15 2 3 3 2 3 3 3 11 3 13 15 1 4 4
split_gain=47377.3 41548.4 35422.5 25949 19568.3 16114.2 14253.6 14027.8 12659.9 11936.8 11235.8 10981 13801.6 10532.9 9640.23 9445.14 9271.35 12676.1 9196.43 9191.91 9185.67 11611.9 8883.57 8435.76 9570.83 8492.8 8448.55 9231.36 8040.22 7818.97
threshold=120911.47657721929 0.013348799369577467 0.94057049022195993 3182275.980519481 2.217756757525565 2484.5000000000005 0.02424762140107314 0.023532563490147564 0.02336299815109243 0.0043242655708778397 0.089130505012140759 28.523644878920706 3933349.333333334 1670410.2721128648 1901214.4641743191 7914.8333333333348 51479.24679646326 990403.66666666686 8836373.1666666698 1516335.5922716998 6070915.666666667 6657569.166666667 689499.16666666674 645173.42200728215 2936182.6666666674 10.015034635057562 17809.647727272732 0.9092263975637811 9.0530760043830778 51.798543151359162
decision_type=2 8 2 10 8 8 8 10 8 10 8 8 8 2 2 10 2 10 10 2 8 8 10 2 8 10 10 2 10 8
left_child=16 9 3 4 -3 -6 -7 29 19 -2 -10 15 -13 14 -9 -12 -1 22 -4 -8 -14 -22 -18 24 -17 -25 -27 -28 -19 -5
right_child=1 2 18 7 5 6 8 13 10 -11 11 12 20 -15 -16 23 17 28 -20 -21 21 -23 -24 25 -26 26 27 -29 -30 -31
leaf_value=0.10292576043822162 0.11185635149353611 0.071894186469156768 0.031056046978702907 0.035361525732429372 0.06197453394518071 0.060461976666689392 0.010631134113675535 0.020282508231219572 0.020779423794771462 0.04483322319804256 0.019881707063682072 0.022509311409127361 -0.042646302540572327 0.0035738842475335738 0.059120444455539004 -0.0048251681624667279 0.039079689478233759 0.11437332838128629 0.071778066638825688 0.047245509386992297 0.074753285116084464 -0.0066690584204000779 -0.018486570372821681 0.010484888992286057 0.039637331280161107 -0.024549651036172439 -0.020258354235679371 0.015676796966601292 0.057223668836281397 0.083431807440606631
leaf_weight=32241.546239256859 29128.85827127099 43562.476897150278 674120.56507329643 250864.68622067571 47738.997842729092 43080.474015265703 496448.66735395789 531386.04560647905 214254.1358128041 302827.43116851151 111897.13214743137 312206.01851241291 61473.710179507732 372559.08328531682 72648.504696175456 222816.06772579253 176763.28826747835 29472.975853309035 60428.791090384126 79551.99082146585 19601.391440019011 164571.04441748559 31599.448299840093 118992.54638175666 61852.100891292095 615543.7491902411 156065.3828908056 131908.86402927339 149422.51256948709 39112.99674859643
leaf_count=70420 59231 102869 1780274 655249 112612 102040 1529475 1471039 673055 758958 361737 982612 220986 1104736 183956 721442 435345 59211 136308 244476 53860 610498 88755 407051 191582 2266836 618784 422308 351515 88800
internal_value=0.0190676 0.0164763 0.0141581 0.0105898 0.00537675 0.00436287 0.0033842 0.0225321 0.0024956 0.0507144 -0.000972315 -0.00332971 0.0085572 0.0167975 0.0249536 -0.00800257 0.0514031 0.0471136 0.0344061 0.015688 -0.00917536 0.00199669 0.0303494 -0.0103895 0.00483555 -0.0146282 -0.0179356 -0.00379798 0.0666391 0.0418454
internal_weight=5.65414e+06 5.23464e+06 4.90269e+06 4.16814e+06 2.90156e+06 2.858e+06 2.81026e+06 1.26657e+06 2.76718e+06 331956 2.19118e+06 1.97693e+06 557852 976594 604035 1.41908e+06 419500 387258 734549 576001 245646 184172 208363 1.30718e+06 284668 1.02251e+06 903518 287974 178895 289978
internal_count=16866020 15860774 15042585 13126003 9622223 9519354 9406742 3503780 9304702 818189 7530751 6857696 1867956 2759731 1654995 4989740 1005246 934826 1916582 1773951 885344 664358 524100 4628003 913024 3714979 3307928 1041092 410726 744049
is_linear=0
shrinkage=0.1


Tree=16
num_leaves=31
num_cat=0
split_feature=8 6 1 10 2 1 6 3 4 3 7 4 3 2 3 3 1 4 3 5 3 13 1 2 3 3 3 5 12 12
split_gain=43290.6 37881.4 34388.5 29873.4 24232 20677 18999.5 13396.5 13858.7 15079.6 13313.2 11245.3 12128.9 11168.7 10939.2 10574 9945.9 9505.06 16850.4 9273.68 8992.08 10396.8 8749.96 8666.5 8508.06 19390.5 13723.9 13269.6 11417.9 11246.3
threshold=0.031204888706103055 2484.5000000000005 0.92275238852531427 0.90111370647035205 193384.37979181772 0.83563681847831772 24020.000000000004 8692516.6666666698 4.9331177466792209 5421531.5000000009 0.087299321313957665 39.466101690613748 648328.41666666686 2287045.2692162665 127545.91666666667 3167491.6666666674 0.97013722828153115 51.798543151359162 4824335.0000000009 0.033108573216396694 3980992.3333333335 3.2607656507288003 0.96706623130828706 82111.757411358863 2818165.8333333335 1831990.3333333335 6573254.8333333349 0.01700539288705501 5169564.1348039228 1691488.7500000002
decision_type=8 8 2 2 2 2 10 10 10 10 8 10 10 2 8 10 2 8 8 10 10 10 2 2 10 10 10 10 10 10
left_child=-1 -2 3 14 22 -5 7 8 9 20 -7 12 -10 -11 -3 -13 -8 -16 19 -19 -6 -22 23 -4 25 -14 -26 -27 -28 -29
right_child=1 2 4 5 6 10 16 -9 11 13 -12 15 24 -15 17 -17 -18 18 -20 -21 21 -23 -24 -25 26 27 28 29 -30 -31
leaf_value=0.063483905970627044 0.07433936949148881 0.03578096918852338 0.073056764862309373 0.073080584864601006 0.029585920299487561 0.010605326138947506 0.034504194172059285 0.039692749484669915 0.03240832226914913 0.11983614302530593 0.044425225320518236 0.048719592849140674 0.0074143242434106492 0.0089470831725699061 -0.0072420875516240706 0.0088119103028723913 0.10091431490462684 0.079019400381704852 -0.0086892791184984969 0.022018820580395403 -0.10686953332615412 0.031126906238444246 0.074519763001135705 0.029586742787817956 0.01773302256479781 0.01067837209851963 -0.051247221651059438 -0.078425852699018958 0.016061092278748038 -0.025252034231282208
leaf_weight=195115.49739024043 107422.67061021924 74892.712762415409 56208.105108126998 70486.348308846354 181060.76388125122 658527.30321934819 361968.37361510098 189321.9080273658 137185.42005772889 30743.386687040329 141386.46339736879 121091.19136188924 359952.39559355378 12891.745430782437 1292258.5998189896 146984.63595086336 24049.868451505899 37510.588230594993 188975.81356702745 119385.89700001478 10993.983395799994 10845.516245886683 81206.185591444373 249191.92663383484 439002.03701549768 61730.298574626446 59597.214795097709 59899.306268215179 43670.521488666534 118392.20756436884
leaf_count=454972 242810 208843 131019 162674 489533 1970863 986017 469474 378045 61424 395848 321665 1069410 35602 4566168 433835 49570 99602 683799 381990 38725 27728 185432 634888 1253498 172950 242956 222498 117987 376195
internal_value=0.0172023 0.0155444 0.0143615 0.00607257 0.0221315 0.0211583 0.0183438 0.0143933 0.0117235 0.0337437 0.0165831 0.00821542 0.00431338 0.0870746 -0.00159261 0.0268384 0.0386417 -0.00330127 0.0114225 0.0356464 0.0222746 -0.0383404 0.0453449 0.0375873 0.000939136 -0.00726584 0.0100172 -0.0292812 -0.0227835 -0.0431165
internal_weight=5.64195e+06 5.44683e+06 5.33941e+06 2.58342e+06 2.75599e+06 870400 2.36938e+06 1.98336e+06 1.79404e+06 246535 799914 1.54751e+06 1.27943e+06 43635.1 1.71302e+06 268076 386018 1.63813e+06 345872 156896 202900 21839.5 386606 305400 1.14224e+06 599974 542270 240022 103268 178292
internal_count=16866020 16411048 16168238 8469787 7698451 2529385 6747112 5711525 5242051 653012 2366711 4589039 3833539 97026 5940402 755500 1035587 5731559 1165391 481592 555986 66453 951339 765907 3455494 1841053 1614441 771643 360943 598693
is_linear=0
shrinkage=0.1


Tree=17
num_leaves=31
num_cat=0
split_feature=5 12 3 4 3 3 4 4 2 8 2 7 5 3 2 2 11 13 11 6 4 5 3 2 8 6 11 2 3 1
split_gain=37758.8 32745.1 24525.9 23022.7 19987 37360.6 28639.6 19156.5 18215.5 16236.2 16115.4 14407.1 14356.4 14166.3 14169.4 14670.9 38737.3 13407.8 12071.6 11255.6 10429.4 10200.6 9995.6 9395.87 8511.66 7802.73 7704.92 10466.2 7702.49 10670.9
threshold=0.0093916813252099777 3817891.208333334 2174504.3333333335 3.1283487361283826 9620862.833333334 6657569.166666667 81.873721495208983 14.157104000749191 404050.03173629747 0.043275608988990556 184534.01552825788 0.008420760189106721 0.0014017781449453337 6385456.0833333349 269892.18831069832 1570868.8911569749 1262625.0294880278 1.0000000180025095e-35 534040.80859193578 5145.8333333333348 15.413420548812839 0.060699488022010487 2705525.333333334 60548.130542734863 0.050262104185697189 2140.3333333333335 1845683.7417219835 1857005.596656627 8692516.6666666698 0.92323896144117357
decision_type=8 10 10 8 10 10 8 10 2 8 2 8 10 10 2 2 2 10 2 10 10 10 10 2 8 10 2 2 10 2
left_child=2 3 12 -2 5 9 7 -7 -3 -5 -9 -11 -1 14 22 18 -17 -8 -16 -10 -15 -6 -13 -14 -21 -25 27 -26 -12 -30
right_child=1 8 -4 4 21 6 17 10 19 11 28 13 23 20 15 16 -18 -19 -20 24 -22 -23 -24 25 26 -27 -28 -29 29 -31
leaf_value=0.077584624871248273 0.057701057022265315 0.051489924230361687 0.078937608655330727 0.03643858947332803 0.061177673471802835 0.061480856327117452 -0.030979238857206427 -0.19837541822977234 0.062043769239073426 0.059462559261553617 -0.063606917509225133 0.011401524531431135 0.083120758862045285 0.13803891572038571 0.012460858435999268 0.058357947946898331 9.3993567584123723e-05 0.13070574240033983 -0.0086985336406004456 0.046777737047389543 0.028829342204855158 0.008173796550235193 0.044531155846436542 0.085721126168386383 0.015165366449005367 0.018695563796461669 0.0011586519286574031 0.049122929035382311 -0.071562406497782088 0.028362629689029601
leaf_weight=54842.758678779006 89181.284522145987 231479.61914779246 116519.28745608032 181182.83295068145 97094.232837021351 14661.732125386596 8069.5325424820185 7760.7614857405424 61480.646317869425 48859.955083668232 125088.77362911403 440483.65072280169 25550.96265552938 12827.783774077892 337152.27460958064 147145.66099049151 508292.79694315791 14073.944915369153 1346191.2640879154 92902.144965454936 27471.589892432094 57996.855859681964 114806.26633293927 17989.952250033617 514199.28617247939 502892.72609555721 278521.18533837795 110219.83314505219 18806.901734128594 24752.47184792161
leaf_count=127154 216959 564472 267381 466529 226043 41473 25743 31012 145238 115267 588611 1236164 61335 26815 1030419 425272 1729585 36671 4644466 227443 84814 158622 290622 39054 1416687 1393941 811255 278847 87493 70633
internal_value=0.015524 0.0123925 0.0369472 0.00752146 0.0062547 0.00464292 -0.0358743 -0.048351 0.0260817 0.00737292 -0.0574794 0.00560765 0.02881 0.00471092 0.00389101 0.000481538 0.0131742 0.0717845 -0.00446058 0.0205191 0.0635921 0.0413567 0.0182511 0.0239147 0.0179555 0.0210105 0.01499 0.0211594 -0.0509957 -0.0147803
internal_weight=5.6285e+06 4.9107e+06 717796 3.6219e+06 3.53272e+06 3.37763e+06 213214 191071 1.2888e+06 3.16441e+06 176409 2.98323e+06 601276 2.93437e+06 2.89407e+06 2.33878e+06 655438 22143.5 1.68334e+06 1.05732e+06 40299.4 155091 555290 546434 995842 520883 902940 624419 168648 43559.4
internal_count=16866020 14977155 1888865 11533213 11316254 10931589 881636 819222 3443942 10049953 777749 9583424 1621484 9468157 9356528 7829742 2154857 62414 5674885 2879470 111629 384665 1526786 1494330 2734232 1432995 2506789 1695534 746737 158126
is_linear=0
shrinkage=0.1


Tree=18
num_leaves=31
num_cat=0
split_feature=1 7 2 8 12 11 2 14 3 4 17 4 5 0 3 6 3 3 2 3 2 8 13 13 11 2 4 2 2 2
split_gain=35319.9 28462.6 26802.5 22192.6 20047.5 19264.3 25791.4 10388.2 10094.2 9780.27 9553.02 7999.91 7915.29 7912.48 9185.24 8416.42 7574.4 7507.24 7092.18 7083.54 8764.09 7067.35 6184.69 7811.34 6720.97 7567.41 6606.45 6455.98 6161.17 6285.12
threshold=0.96706623130828706 0.008420760189106721 120911.47657721929 0.02424762140107314 1967697.4375000002 1531315.3729853542 1744594.7151782955 0.017729008789447956 9229003.6666666698 71.444100473250828 0.10616152585995292 9.3285603115022493 0.023532563490147564 0.041094051191499253 4885649.666666667 23211.166666666668 7616384.916666667 1377648.5000000002 3440855.8239957835 2194397.5000000005 51479.24679646326 0.20445541153838484 26.722207610490944 8.9201552714381851 677191.65392214002 776666.38491861906 12.08384407723266 425452.56483149051 1048305.3593465433 3764088.8357735048
decision_type=2 8 2 8 10 2 2 8 8 8 10 10 10 2 10 10 10 10 2 10 2 10 10 8 2 2 10 2 2 2
left_child=1 -1 19 -4 7 6 8 -5 9 11 21 -6 -7 -2 15 -15 -13 -14 22 20 -3 -9 23 -12 25 -25 -24 -26 -19 -30
right_child=13 2 3 4 5 12 -8 10 -10 -11 18 16 17 14 -16 -17 -18 28 -20 -21 -22 -23 26 24 27 -27 -28 -29 29 -31
leaf_value=0.059753614524453325 0.077804329424091268 0.088478523852261431 0.060317978294583852 0.015223252800729637 0.029179592895492129 0.022929749375122075 0.055442390503376529 0.0057744715498618138 0.041862297974657472 0.048624332405503699 0.0095322482797139153 0.009024618517035168 0.027149167789232678 0.022366546648835736 0.066325868917057093 0.076444168677179042 -0.030896680402870733 0.018953515523291595 0.037121739160778149 0.065536679915697602 0.024752444291788338 0.051323263868576524 0.05117111075731428 -0.0094808344142549919 0.0031013139410524665 0.03480532355987298 0.0001784375748374168 -0.024880094773591037 -0.012607699446424349 0.02372029875707142
leaf_weight=120556.24035017192 52928.950978189707 23564.95665460825 81550.565693721175 409022.96959419549 194268.66693066061 154573.88911372423 188774.73044897616 487171.20738726854 135042.2461014986 72478.116505414248 151971.44062577188 879292.88356338441 79149.543203160167 262183.92285515368 81006.909110918641 32328.864869147539 50242.500718340278 89485.443451479077 35328.753017768264 70732.738734573126 256341.08770373464 36625.542804822326 29720.633915930986 213750.60993996263 97490.08249989152 47083.46665301919 175050.67386485636 534699.64002731442 518140.83275024593 52444.985115095973
leaf_count=285957 119342 57192 188978 1218534 527693 433202 485504 1560762 331542 186775 489037 2608465 232987 676313 188371 72492 167465 261222 108178 166903 656779 109432 85007 708019 319497 149217 600336 2080690 1640162 149967
internal_value=0.0140127 0.0117324 0.0105891 0.00860484 0.00769435 0.0140005 0.0208507 0.000830923 0.0159458 0.0130202 -0.00242344 0.010724 0.00235031 0.041607 0.036505 0.0283027 0.00686682 -0.00195293 -0.00706301 0.0372624 0.0301175 0.00895939 -0.00831204 -0.0114261 -0.0149927 -0.00148669 0.00757955 -0.0205651 -0.00544258 -0.00926864
internal_weight=5.613e+06 5.18455e+06 5.064e+06 4.71336e+06 4.63181e+06 2.41389e+06 1.5201e+06 2.21792e+06 1.33132e+06 1.19628e+06 1.80889e+06 1.1238e+06 893795 428449 375520 294513 929535 739221 1.2851e+06 350639 279906 523797 1.24977e+06 1.045e+06 893024 260834 204771 632190 660071 570586
internal_count=16866020 15809502 15523545 14642671 14453693 7024984 4307444 7428709 3821940 3490398 6210175 3303623 2717540 1056518 937176 748805 2775930 2284338 4539981 880874 713971 1670194 4431803 3746460 3257423 857236 685343 2400187 2051351 1790129
is_linear=0
shrinkage=0.1


Tree=19
num_leaves=31
num_cat=0
split_feature=6 10 5 12 4 4 3 3 3 4 3 3 5 4 3 3 3 4 3 12 2 5 11 2 3 2 4 8 3 3
split_gain=31441.3 28530.7 23236.2 20109.4 16050.4 13561.9 18018.9 15401.6 29937.5 15539 13593.8 22199.8 16126.6 15896.7 17395.2 15065.9 31098.2 17901.9 15041 13450.5 11604.1 9940.72 9053.75 8414.57 8241.21 9791.61 7871.9 8917.06 7853.17 7830.44
threshold=2484.5000000000005 0.9438933889716814 0.0047685622103140627 3817891.208333334 2.217756757525565 50.47838213228156 3980992.3333333335 9807491.583333334 6657569.166666667 16.829094604281217 2878360.333333334 1477863.5000000002 0.021594261034965406 11.239539738609674 4031735.5000000005 1023220.8333333334 689499.16666666674 30.303874567682396 5892215.333333334 1563258.3382352942 404050.03173629747 0.024118182077940743 784429.11762595712 281330.09788985009 9229003.6666666698 184534.01552825788 26.861551709451977 0.083312692244760581 8692516.6666666698 2174504.3333333335
decision_type=8 2 8 10 8 8 8 10 10 10 8 10 10 10 10 10 10 10 10 10 2 10 2 2 10 2 10 10 10 10
left_child=-1 2 29 4 -4 7 21 8 10 -10 11 15 -13 14 -12 16 -6 23 -16 -14 -5 -7 -15 -17 25 -11 27 -18 -3 -2
right_child=1 28 3 20 5 6 -8 -9 9 24 13 12 19 22 18 17 26 -19 -20 -21 -22 -23 -24 -25 -26 -27 -28 -29 -30 -31
leaf_value=0.065266327869003868 0.032976309916283586 0.027345591826740252 0.062354180335914312 0.04048909437914517 0.011010186989281572 0.074380819327246592 0.00048743755952149003 0.039088250921018974 0.032169692425500294 -0.20280923697488085 0.096132381618933546 0.005556263919542179 -0.045641582448079511 0.025630979051573417 -0.038937188007578484 0.060409877854657706 -0.0086258834317023535 -0.036157480469288655 0.10986060030060579 -0.012972220793253367 0.014081928329872283 0.025892117474182491 -0.0015699665587451932 0.021773612142274787 -0.0010909885796264855 -0.064154121634594038 0.013448652141611232 -0.051279960323997203 0.064206345293197173 0.096398481595379518
leaf_weight=111313.83636058867 233735.29923030734 611609.93535302579 45640.02682711184 203382.02472428977 560556.90914598107 52079.009417757392 332949.96664875746 95825.033211484551 21528.84661437571 5376.3274284899235 45153.046307697892 222660.70379246771 216487.40176022053 183625.2225175947 24916.727945670485 74516.027587160468 72019.88789460063 45325.412357613444 9339.7897195965052 301593.36714528501 915294.82915151119 224710.82501702011 366792.82675272226 231467.82145641744 19886.747855812311 96678.890842139721 34797.08003179729 153416.82008509338 63830.647600516677 21235.917635574937
leaf_count=258105 616360 1608221 107825 511727 1683717 127766 1125492 238751 67964 22148 112787 672988 847563 543697 86492 185914 229482 162918 21092 1025550 2533593 664548 1259324 736427 60437 483481 110115 565421 149679 46436
internal_value=0.0126508 0.0115833 0.00888126 0.0072372 0.00344713 0.00265445 0.0161613 -0.000305934 -0.00171128 -0.0461546 0.000796449 -0.00339918 -0.0169506 0.0135389 0.0553656 0.00516501 -0.00225226 0.0224945 0.00163144 -0.0266236 0.0188829 0.0350154 0.00750455 0.0311827 -0.0599827 -0.0714586 -0.0308202 -0.0376533 0.030829 0.0382586
internal_weight=5.59775e+06 5.48643e+06 4.81099e+06 4.55602e+06 3.43734e+06 3.3917e+06 609740 2.78196e+06 2.68614e+06 143471 2.54267e+06 1.91284e+06 740741 629828 79409.6 1.1721e+06 820791 351309 34256.5 518081 1.11868e+06 276790 550418 305984 121942 102055 260234 225437 675441 254971
internal_count=16866020 16607915 14850015 14187219 11141899 11034074 1917806 9116268 8877517 634030 8243487 6220095 2546101 2023392 220371 3673994 2588735 1085259 107584 1873113 3045320 792314 1803021 922341 566066 505629 905018 794903 1757900 662796
is_linear=0
shrinkage=0.1


Tree=20
num_leaves=31
num_cat=0
split_feature=0 7 4 6 3 4 5 5 5 4 3 3 3 12 3 3 3 12 3 2 3 2 3 3 2 6 3 3 3 4
split_gain=29421 24383.8 20804.7 18452.9 18368.4 16832.2 16495.2 13585.6 12896 11544.6 19056.7 15749.3 18543.9 16632.8 12380.2 12308.9 11944.5 25399.7 10718.2 10704.5 10296.3 10146.2 9905.39 9631.02 17448.3 12802.2 17849.4 13145.1 18422.3 15504
threshold=0.060213412705031055 0.008420760189106721 4.2153656962745414 2140.3333333333335 9620862.833333334 51.798543151359162 0.0067621807371249128 0.023532563490147564 0.036249331047046002 11.239539738609674 2846054.0833333335 2014565.166666667 1023220.8333333334 1460371.1758241761 689499.16666666674 3167491.6666666674 6573254.8333333349 4056879.683333334 1377648.5000000002 193384.37979181772 975003.91666666686 112866.5629884056 5892215.333333334 3396152.0000000005 497139.52099453198 28834.083333333339 3167491.6666666674 2964956.7500000005 1583247.666666667 27.067851449748229
decision_type=2 8 8 8 10 8 10 8 10 10 10 10 10 10 10 10 10 10 8 2 10 2 10 10 2 10 10 10 8 10
left_child=21 -2 20 -4 5 6 -5 -7 -6 10 11 12 14 -13 -8 -12 23 19 -9 -18 -3 -1 -17 25 -25 26 27 28 -11 -29
right_child=1 2 3 4 8 7 9 18 -10 16 15 13 -14 -15 -16 22 17 -19 -20 -21 -22 -23 -24 24 -26 -27 -28 29 -30 -31
leaf_value=0.073564725038740245 0.054163245320483389 0.020411092121566589 0.063112904771297149 0.02392483127844908 0.052914843622204999 0.052448111622587959 0.0078890881816739405 0.053668175526596619 0.013506973439648066 0.0021651424567395296 0.10283808861393387 -0.099835271416736274 0.035702940992327507 -0.0046131684806177296 -0.034004479088588412 0.010464499519103788 -0.17185012255923549 0.0092036791549412449 0.0084730998625204626 -0.045509604041691909 0.0649370315602361 0.028587364297813913 0.081151777843038786 0.039323830981182389 -0.00030684771280462886 0.019068188570808768 -0.058364469949306767 -0.012206051734420999 -0.022338325794964121 0.077722257862548119
leaf_weight=55599.693672806025 116629.46504476666 129933.10806520283 56868.540557131171 287963.69469276071 127998.3801009059 96349.665401786566 232034.9039055407 57340.221246927977 236420.57509419322 661951.78744165599 28291.301266729832 28724.729236841202 170434.28068579733 50758.89613969624 101350.11951723695 77801.380237579346 7031.3599056750536 127207.88766513765 618219.58449612558 145048.74505079538 86514.084260568023 512159.72524122894 26602.179221600294 142659.4926469475 502084.49706035852 179343.53836910427 70453.994589671493 37743.325989380479 571911.16685841978 38961.28239838779
leaf_count=136035 281667 352857 132070 783878 306748 243808 697930 150583 627166 2113410 67227 115048 495421 158083 358406 227470 28432 355312 1941893 668648 208171 1334850 64225 383562 1601004 564821 255569 123335 1983512 104879
internal_value=0.0114166 0.00897388 0.00789785 0.00649649 0.00580029 0.00395707 0.00100025 0.0173193 0.0273486 -0.00106245 0.0101253 0.00234405 0.00887062 -0.0390257 -0.00484669 0.0443302 -0.00428672 -0.02377 0.0123092 -0.0513509 0.0382081 0.0329919 0.0284757 -0.00181907 0.00846205 -0.00606724 -0.0093314 -0.00669546 -0.00919253 0.0334721
internal_weight=5.58239e+06 5.01463e+06 4.898e+06 4.68156e+06 4.62469e+06 4.26027e+06 3.48836e+06 771909 364419 3.20039e+06 715998 583303 503819 79483.6 333385 132695 2.4844e+06 279288 675560 152080 216447 567759 104404 2.20511e+06 644744 1.56037e+06 1.38102e+06 1.31057e+06 1.23386e+06 76704.6
internal_count=16866020 15395135 15113468 14552440 14420370 13486456 11150172 2336284 933914 10366294 2183810 1824888 1551757 273131 1056336 358922 8182484 1052392 2092476 697080 561028 1470885 291695 7130092 1984566 5145526 4580705 4325136 4096922 228214
is_linear=0
shrinkage=0.1


Tree=21
num_leaves=31
num_cat=0
split_feature=8 2 10 13 4 4 3 7 5 2 1 7 10 1 16 12 4 3 2 9 7 0 16 11 2 3 13 3 4 8
split_gain=28364.3 23863.9 20956.1 16797.7 20002.5 14749.2 12437.3 9680.77 8869.42 8743.79 9717.75 14540.2 12201.7 13237.1 8640.85 7407.88 7113.01 6913.3 9351.06 6823.06 6563.74 6289.16 6223.82 5875.2 12689.7 5581.26 5407.6 4937.29 4906.76 4823.13
threshold=0.026727754438136051 104411.09941952272 0.9462844656192172 30.082739445290219 8.2179623306502982 2.8388859187446562 12540448.16666667 0.0076190625568547951 0.012032857566535918 3764088.8357735048 0.91329013287148719 0.066761978992275803 0.88550451782717599 0.82615766473107921 0.06252216457013772 4216346.7500000009 1.0000000180025095e-35 990403.66666666686 51479.24679646326 0.12315168680224785 0.072798859225083098 0.22243267515496987 0.085667106087423672 1725361.9883808086 1944625.6770063553 8692516.6666666698 11.130125698620743 6573254.8333333349 13.605224047066995 0.012034496969364568
decision_type=8 2 2 10 10 8 10 8 10 2 2 10 2 2 10 8 10 10 2 2 8 2 8 2 2 10 10 10 10 10
left_child=29 17 3 5 16 -3 7 -7 -6 10 12 14 21 -14 15 19 -5 18 -2 -12 -15 26 -23 24 -10 27 -9 -4 -29 -1
right_child=1 2 25 4 8 6 -8 9 23 -11 11 -13 13 20 -16 -17 -18 -19 -20 -21 -22 22 -24 -25 -26 -27 -28 28 -30 -31
leaf_value=0.091279549893537648 0.084142633807790287 0.043300123572599561 0.02613177395847617 0.13344394115385011 0.040873224282008173 0.044891171859255279 0.053622119757188863 -0.0057600291915431085 0.010183065086927796 0.035504704980799585 -0.012987993779236803 0.022377405593109939 0.061603670080583532 -0.0076497687401058112 0.014508223082534339 0.010830461277427764 0.051598226857443134 0.057518649053989207 0.015514013641654665 0.010626741936073061 0.016328859107423061 0.028363529649509691 -0.024412196324863397 -0.00064668956559348425 0.053788579913702061 0.058033263182126919 -0.023659785801072586 0.063205690081099372 -0.024698976587254576 0.045581389168366494
leaf_weight=29586.410916224122 23063.388569310308 83918.796754941344 448533.42281931639 12774.03342436254 99049.362308874726 47650.656573042274 44073.564853355289 249978.66298013926 583046.48237224668 66030.85892881453 727708.08558574319 337748.81731720269 37355.94640289247 357961.99296625704 294531.91041983664 239534.4054877162 62925.621035888791 108663.44391210377 142680.28260402381 147082.08418230712 167609.05608915538 61593.278212428093 35067.556473836303 364760.43847541511 75363.523396641016 50136.546124219894 519569.08032648265 7716.7720408588648 35850.666910588741 105277.3160250783
leaf_count=63487 60213 206921 1160727 25616 255968 116878 105949 908076 1719155 187258 2279153 995147 92835 1167259 853420 663354 161450 269373 380682 457318 523999 218216 144037 1128719 199506 120490 2002200 18859 121519 258236
internal_value=0.0103051 0.00918035 0.00765149 0.00546662 0.0156563 0.00189481 0.000852453 0.000145415 0.0123002 -0.000512301 -0.00126118 0.00374262 -0.00737652 0.00408543 -0.000724745 -0.00475104 0.0654094 0.0379157 0.0250638 -0.00901755 -2.78136e-06 -0.0148254 0.00921704 0.0095341 0.0151743 0.0262483 -0.0178453 0.02301 -0.00912909 0.0556067
internal_weight=5.56684e+06 5.43198e+06 5.15757e+06 4.61533e+06 1.19792e+06 3.41741e+06 3.3335e+06 3.28942e+06 1.12222e+06 3.24177e+06 3.17574e+06 1.74661e+06 1.42914e+06 562927 1.40886e+06 1.11432e+06 75699.7 274407 165744 874790 525571 866209 96660.8 1.02317e+06 658410 542237 769548 492101 43567.4 134864
internal_count=16866020 16544297 15834029 14412434 3490414 10922020 10715099 10609150 3303348 10492272 10305014 5248392 5056622 1784093 4253245 3399825 187066 710268 440895 2736471 1691258 3272529 362253 3047380 1918661 1421595 2910276 1301105 140378 321723
is_linear=0
shrinkage=0.1


Tree=22
num_leaves=31
num_cat=0
split_feature=6 8 5 1 6 10 0 7 3 7 4 3 6 16 3 2 1 2 4 5 16 2 1 0 3 3 3 12 6 5
split_gain=24278.7 21540.8 18478.7 16695.2 18892.9 18211.2 21399.2 12790.3 12678.5 13299.3 11282.9 15522 10375.8 9902.3 9432.24 9917.56 9418.04 8973.02 8028.14 8026.18 7299.07 7254.04 7122.02 7140.78 6970.27 6706.76 6640.24 6160.63 5850.29 5511.96
threshold=4105.916666666667 0.020948750528547912 0.0038837576691360775 0.92275238852531427 23211.166666666668 0.87512084692478409 0.17378461020449368 0.090299950306828566 8692516.6666666698 0.066761978992275803 11.239539738609674 5421531.5000000009 1253.7500000000002 0.065471459190991899 6573254.8333333349 165574.89976441869 0.97013722828153115 188700.9494689804 81.873721495208983 0.035157373909070193 0.05869365500863543 2319212.4316643723 0.89435145858666798 0.23844062028425536 3755375.9166666674 975003.91666666686 11458515.16666667 5718103.0208333349 18941.333333333339 0.0014017781449453337
decision_type=8 8 8 2 10 2 2 8 10 10 10 10 10 8 10 2 2 2 10 10 10 2 2 2 10 10 10 10 10 10
left_child=12 -2 25 5 8 22 7 -7 9 10 11 17 -1 -9 20 -16 24 -5 27 -10 -12 -13 23 -4 -6 29 -26 28 -17 -3
right_child=1 2 3 4 16 6 -8 13 19 -11 14 21 -14 -15 15 18 -18 -19 -20 -21 -22 -23 -24 -25 26 -27 -28 -29 -30 -31
leaf_value=0.093207875073710755 0.061606663947060374 0.059392585274083434 -0.016697364005545556 0.03656336091533139 0.037329270365727606 -0.00075536982376235595 0.052452719158228051 0.056125941814997554 0.05206118632433715 0.024759477580212106 -0.0063847075038633311 0.081574867750254021 0.030699636385468423 0.011381408890962669 -0.17847794323518532 -0.061400400215634268 0.086915088753296454 0.00092523303169243266 0.13704178496244021 0.012250679172176995 0.013482743563637517 -0.0032485568383345473 0.0080919209684187626 0.011850594844350651 0.0051704063885914114 0.067286181005496729 0.071736071634516271 0.0040188511478282153 0.015072141112590609 0.013430390589073063
leaf_weight=29381.802055299282 73117.585592508316 35548.729348689318 794240.46164532006 86258.105307221413 244078.82685151696 1021811.5516247451 98506.386447384953 71829.168084308505 96681.036191821098 287006.93280276656 725202.47735159099 44503.503619581461 276008.42843902111 158822.32379288971 4445.8486663103104 56683.237334579229 27332.391629859805 390431.38621996343 2935.6744005829096 106348.62969216704 248211.16888795793 13035.062614753842 183316.61785911024 98482.796362668276 161994.25729489326 54480.19654507935 16513.56530033052 34207.726104944944 12147.744106940925 98079.647624835372
leaf_count=64437 172139 87489 2963451 222095 647954 3226323 262712 191799 239460 818189 2158223 101318 719873 505704 17292 240973 61063 1134887 6529 283306 709902 36882 595876 352582 468857 130494 37275 93627 45126 270183
internal_value=0.00930422 0.00770869 0.00694689 0.0057859 0.0114229 -0.000155366 0.00757544 0.00404583 0.00745261 0.00492091 0.001402 0.0132961 0.0367136 0.0253157 -0.00446066 -0.0321588 0.0300256 0.00737404 -0.0260204 0.0312081 -0.0013187 0.0623586 -0.0098614 -0.013548 0.026346 0.0377141 0.0113283 -0.0306662 -0.047904 0.0256576
internal_weight=5.55164e+06 5.24625e+06 5.17314e+06 4.98503e+06 2.55802e+06 2.42701e+06 1.35097e+06 1.25246e+06 2.1081e+06 1.90507e+06 1.61806e+06 534228 305390 230651 1.08383e+06 110420 449919 476689 105974 203030 973414 57538.6 1.07604e+06 892723 422587 188109 178508 103039 68831 133628
internal_count=16866020 16081710 15909571 15421405 7322958 8098447 4186538 3923826 6107809 5585043 4766854 1495182 784310 697503 3271672 403547 1215149 1356982 386255 522766 2868125 138200 3911909 3316033 1154086 488166 506132 379726 286099 357672
is_linear=0
shrinkage=0.1


Tree=23
num_leaves=31
num_cat=0
split_feature=0 7 10 4 4 6 3 7 2 2 7 16 10 16 7 1 12 11 3 0 3 1 16 7 15 6 6 17 2 2
split_gain=21978.6 19532.4 15059 11423.4 10234.3 10375.3 10195.2 9973.66 9450.24 8717.19 8262.25 20148.9 12797.2 11160.6 8023.97 7740.31 7346.98 7043.45 6544.7 6063.35 5754.36 5953.57 5672.07 5380.7 4818.99 4746.69 5991.59 4640.54 4625.57 4425.81
threshold=0.052264466706896988 0.015383161824804105 0.93583347436092812 2.217756757525565 90.86974112223659 1764.1666666666667 8065790.5000000009 0.0043242655708778397 95770.412344464537 3764088.8357735048 0.067249339608753941 0.044964131748221975 0.84447680053592411 0.064699718493582761 0.066761978992275803 0.86551889262325032 3907128.8333333335 2008114.674483221 2194397.5000000005 0.041094051191499253 8836373.1666666698 0.84848061479827186 0.028842054755706135 0.046912062182322016 33665.562500000007 25357.583333333339 5501.2500000000009 0.087525674352307972 281330.09788985009 60548.130542734863
decision_type=2 8 2 8 10 8 10 10 2 2 10 8 2 10 10 2 10 2 10 2 10 2 8 8 10 10 10 8 2 2
left_child=19 7 3 -3 5 -5 -6 -2 18 10 13 -12 15 16 20 -13 22 -11 23 -1 21 -4 -10 29 -9 26 -23 -24 -14 -7
right_child=1 2 14 4 6 8 -8 24 9 17 11 12 28 -15 -16 -17 -18 -19 -20 -21 -22 25 27 -25 -26 -27 -28 -29 -30 -31
leaf_value=0.066006302957352575 0.085038101566704646 0.049070347203183318 0.065687491383329771 0.059739132377956153 0.033998565209115615 0.039216076985593422 0.22137156584941253 0.020736562293432854 0.0051942723858484849 0.094317460462526953 0.040487763894791917 -0.028426948246058882 0.027017205326247431 0.009602804998757878 0.036031892789622988 0.02120332555218115 0.0037302928278160085 0.018326757001686865 0.073838393739989586 0.02881886440103559 0.04194446226737121 0.029191307142851515 0.0046793506927591466 0.035915822838464451 0.068722233689190615 0.032268193147613235 3.2791523837741384e-05 -0.01458363092125764 0.0042129897535370308 -0.021519172867706701
leaf_weight=55959.66224065423 28030.456617936492 52179.338010445237 18251.520355224609 30198.76907607913 53653.922717735171 16441.640719905496 3070.0626021921635 382983.09114251286 203843.22658516467 14466.739527896047 150543.15622776002 183223.04793816805 106101.28709672391 493267.72770540416 178539.71492476761 37929.472966223955 479214.98228834569 77753.995279178023 23522.547443643212 202527.03498321772 59533.994476288557 83374.392962947488 138898.53552389145 67409.176874354482 22137.987837716937 69759.02275159955 455350.04946440458 1255338.8799956217 550174.76666980982 44394.006016492844
leaf_count=134825 62977 127150 42011 71719 151520 47321 5679 1040238 643586 34830 438735 732852 285890 1523989 458919 123902 1349334 227731 57949 527162 149591 215424 435849 173408 52591 180756 1295620 4342409 1804424 127629
internal_value=0.00839862 0.00700469 0.0051863 0.00258844 0.00197121 0.00135356 0.0441397 0.0273502 0.000894703 -0.000110942 -0.000888946 0.00668827 0.000889189 -0.00391909 0.017147 -0.0199149 -0.00712995 0.0302475 0.0253505 0.0368696 0.0122339 0.00941169 -0.0103866 0.0164569 0.0233588 0.00772369 0.00454544 -0.0126646 0.00789979 -0.00510467
internal_weight=5.53807e+06 5.27959e+06 4.84643e+06 3.98163e+06 3.92945e+06 3.87272e+06 56724 433152 3.84252e+06 3.69076e+06 3.59854e+06 1.02797e+06 877429 2.57056e+06 864809 221153 2.0773e+06 92220.7 151767 258487 686269 626735 1.59808e+06 128245 405121 608483 538724 1.39424e+06 656276 60835.6
internal_count=16866020 16204033 15048227 12705906 12578756 12421557 157199 1155806 12349838 11943531 11680970 3385803 2947068 8295167 2342321 856754 6771178 262561 406307 661987 1883402 1733811 5421844 348358 1092829 1691800 1511044 4778258 2090314 174950
is_linear=0
shrinkage=0.1


Tree=24
num_leaves=31
num_cat=0
split_feature=8 2 7 12 11 2 2 3 3 10 8 2 11 3 3 4 4 5 3 3 13 5 7 3 4 5 4 4 6 3
split_gain=20877.9 17325.7 14040 11986.8 14254.5 18645.1 15942.4 8235.71 7929.77 7878.47 7695.91 7285.94 20621.4 7330.55 23919.8 19645.2 14377.3 9042.88 8763.38 12381.6 8476.28 6787.14 6763.78 5791.02 5694.91 5651.84 5273.87 5519.06 4786.92 4591.51
threshold=0.042056050792923731 112866.5629884056 0.013775349903732944 1591460.3500000003 1085712.9723656613 1556471.8292016762 519750.86071607709 2705525.333333334 626790.83333333337 0.91525391406870515 0.017278945394456426 1570868.8911569749 1190257.15264243 2878360.333333334 1996137.5833333337 22.251912137742288 9.8832230344824232 0.01700539288705501 3980992.3333333335 5502186.0000000009 11.015179415290332 0.015396008161535022 0.0043242655708778397 3434662.0000000005 37.389092602275831 0.013563834379833608 76.438727979537319 11.239539738609674 25814.750000000004 1023220.8333333334
decision_type=8 2 8 10 2 2 2 8 10 2 10 2 2 10 10 8 10 10 10 10 8 10 10 10 10 10 10 8 10 10
left_child=10 9 22 11 5 7 -6 -5 -8 29 -1 13 -13 14 -4 17 18 -16 -15 -20 23 -10 -3 24 28 -9 27 -23 -18 -2
right_child=1 2 3 4 6 -7 8 25 21 -11 -12 12 -14 16 15 -17 20 -19 19 -21 -22 26 -24 -25 -26 -27 -28 -29 -30 -31
leaf_value=0.065849485789650705 0.005051276242887706 0.076308959736153675 -0.0037909379758633878 0.0032057468933179866 0.028002249331635989 0.054516517116685106 0.029664110467761597 0.052218956448868703 0.018396982552666263 0.051294933390497725 0.024933355098834948 0.056633440260686313 -0.0041202033619494064 0.11572131448089107 -0.015906129817873916 -0.0094615492449436553 -0.060659717146501313 -0.092318788927002071 -0.07931460201086965 0.096801206172517168 -0.0099845234724378236 0.011718221980301745 0.021043954121021908 0.040520334972467098 0.087809698591714128 0.017090335168302512 0.019565474532939213 -0.010698119763792596 0.062251003646698479 0.037344351821901323
leaf_weight=54644.075584962964 116706.871832937 24057.671196579933 903123.04618217051 579538.79239855707 192635.37928472459 110578.88088412583 71972.400956273079 50581.905365735292 118868.60632959753 106502.04831777513 289581.23070374131 74219.003615342081 225973.56958296895 17991.644739627838 19700.636215120554 85726.76781219244 16845.381124377251 72415.5510186553 7530.8726022690535 8494.7629215121269 248803.65905532241 123052.4575496465 278648.61307561398 68067.302411824465 4391.5982968658209 484491.46796585619 72255.513668507338 1022440.917935513 3902.7897260040045 70701.555767685175
leaf_count=128660 323828 55226 2947221 1720926 526872 281154 206526 124783 329834 275938 767521 221807 832857 39486 59758 310363 61661 302129 27992 19115 899797 367831 744232 212389 11861 1374294 203882 3292555 10865 184657
internal_value=0.00758061 0.00599591 0.00457755 0.00320002 0.0072322 0.0153508 0.00102017 0.0114653 -0.00266984 0.0295765 0.0314286 -0.00328569 0.0109004 -0.00620853 -0.0103921 -0.0439139 0.00581786 -0.0759766 0.0678188 0.0140397 -0.000348921 -0.00441091 0.0254362 0.025372 -0.0156429 0.0204111 -0.00663727 -0.00829009 -0.0375399 0.0172341
internal_weight=5.52444e+06 5.18022e+06 4.88631e+06 4.5836e+06 2.82642e+06 1.22519e+06 1.60123e+06 1.11461e+06 1.40859e+06 293910 344225 1.75719e+06 300193 1.45699e+06 1.08097e+06 177843 376028 92116.2 34017.3 16025.6 342011 1.33662e+06 302706 93207.1 25139.8 535073 1.21775e+06 1.14549e+06 20748.2 187408
internal_count=16866020 15969839 15185416 14385958 8428657 3501157 4927500 3220003 4400628 784423 896181 5957301 1054664 4902637 3619471 672250 1283166 361887 86593 47107 1196573 4194102 799458 296776 84387 1499077 3864268 3660386 72526 508485
is_linear=0
shrinkage=0.1


Tree=25
num_leaves=31
num_cat=0
split_feature=4 0 6 3 4 5 3 3 12 4 3 3 2 6 5 4 3 3 3 4 3 12 11 4 5 5 4 6 3 4
split_gain=18134.9 16680.4 14908.7 12600.7 14228.7 15202.1 13204.5 11991.3 18564.1 14172.1 11994.3 19663 17432.3 12765.7 13661.8 14810.7 19729.7 12640.3 24781.2 14534.1 11835.2 13123.5 11210.7 10603.7 10336.7 8645.7 8242.85 8215.31 8101.65 7786.98
threshold=3.1283487361283826 0.045156393353692446 4527.416666666667 9229003.6666666698 49.835349583688249 0.0044934104068615191 2361533.4166666674 6657569.166666667 3647294.3125000005 16.829094604281217 2878360.333333334 1477863.5000000002 527289.30283617147 27209.000000000004 0.021594261034965406 36.1201700303831 2174504.3333333335 1023220.8333333334 689499.16666666674 29.811714450575096 2014565.166666667 1518023.6250000002 739684.07594844338 24.071369325241417 0.039588476923256406 0.075294149132616117 25.806945219577582 1253.7500000000002 1318327.4166666667 90.86974112223659
decision_type=8 2 8 10 8 10 8 10 10 10 10 8 2 10 10 10 10 10 10 10 10 10 2 10 10 10 10 10 10 10
left_child=-1 -2 27 4 5 -4 -6 10 9 -9 11 17 -12 14 -13 20 -17 18 -7 -19 23 -22 -14 -16 -5 -11 -20 -3 -21 -8
right_child=1 2 3 24 6 7 29 8 -10 25 12 13 22 -15 15 16 -18 19 26 28 21 -23 -24 -25 -26 -27 -28 -29 -30 -31
leaf_value=0.041543155268578602 0.046396774474151935 0.080971502577924903 0.027554457674867829 0.039967397716588311 0.034983943694081379 0.0088691708880742522 0.0030421880163496676 0.026057973069692087 0.0041187645778072131 -0.078818788998540029 0.029313205792387977 -0.0013430233747600583 0.025522980564537008 0.012892592910509836 0.0015876461431428954 -0.047128372570813773 0.042895964637413839 0.025879508959188481 -0.0348727716813238 0.0053428001023228472 -0.079840664543255987 -0.034101134380397628 -0.0051474501714215111 -0.055034446932265092 0.007755416072149076 -0.011626838625546979 0.011628322902829813 0.021201788989765859 -0.071272851434871873 0.042985955204616288
leaf_weight=146584.61320436001 99781.909406363964 24872.166615247726 183844.41839048266 163598.02970938385 220230.46460337937 559003.82383415103 566949.98964973539 20984.360436171293 130389.91761219501 84818.560642950237 289796.8253659755 250810.25083518028 146671.89772024751 133387.40468128026 108382.78801210225 42015.121129497886 57883.299472078681 345168.70802143216 238097.59969595075 30662.918316632509 96697.315638244152 178568.42208945751 635753.97418794036 47599.524274274707 254737.82609538734 24734.224178805947 45386.229146450758 304940.62037394941 25099.653037309647 53402.952793329954
leaf_count=368863 253709 57835 490223 416662 604956 1674981 1801092 67814 371416 434592 793108 755354 413493 425484 360091 157770 182130 1023051 838684 97214 411925 611440 2049892 182871 692020 124928 139527 823549 97023 144323
internal_value=0.0068408 0.00589252 0.00512481 0.00374904 0.00221111 -0.000473035 0.0139485 -0.00194864 -0.0225696 -0.0492279 -0.000283342 -0.00457732 0.00836194 -0.0157007 -0.0205782 -0.0296612 0.00503367 0.00361121 -0.00334421 0.0182268 -0.0376983 -0.0501688 0.000601964 -0.0156911 0.0203525 -0.0636486 -0.0274279 0.0257092 -0.0291432 0.00648074
internal_weight=5.51086e+06 5.36427e+06 5.26449e+06 4.93468e+06 4.51634e+06 3.67576e+06 840583 3.49191e+06 260927 130537 3.23099e+06 2.15876e+06 1.07222e+06 915344 781957 531146 99898.4 1.24342e+06 842488 400931 431248 275266 782426 155982 418336 109553 283484 329813 55762.6 620353
internal_count=16866020 16497157 16243448 15362064 14253382 11703011 2550371 11212788 998750 627334 10214038 6957545 3256493 3087065 2661581 1906227 339900 3870480 2653192 1217288 1566327 1023365 2463385 542962 1108682 559520 978211 881384 194237 1945415
is_linear=0
shrinkage=0.1


Tree=26
num_leaves=31
num_cat=0
split_feature=1 10 0 1 0 3 5 7 7 8 8 17 3 6 14 4 3 15 8 3 12 5 5 3 13 4 5 2 11 2
split_gain=16879.8 12137.7 11122.5 11446.4 10188.9 8497.58 7893.7 7564.54 7484.1 7315.43 6864.59 6716.69 6471.02 6252.48 6018.86 6877.9 5978.82 5769.51 5754.59 5650.01 5244.25 5038.74 4877.3 4777.14 4686.02 4936.43 4683.27 4575.1 5017.12 7194.59
threshold=0.94392043522669489 0.92089304127259208 0.097723590290045251 0.97620453178320121 0.15621330488833599 318057.33333333343 0.0018389889174921369 0.072798859225083098 0.060291162667955291 0.053324576909763492 0.020948750528547912 0.094311686616423876 9229003.6666666698 3014.2500000000005 0.031601537409151947 49.835349583688249 4681850.5000000009 20019.050000000003 0.15670661025733176 3755375.9166666674 5543665.8750000009 0.080517550084641745 0.26882397973915639 6657569.166666667 31.517322684495149 8.2179623306502982 0.11394499854127699 3764088.8357735048 912423.54279770423 527289.30283617147
decision_type=2 2 2 2 2 8 8 8 10 10 8 8 10 8 8 8 8 10 10 10 10 10 10 10 10 10 10 2 2 2
left_child=1 6 3 5 7 -2 -1 12 10 -8 -7 18 23 -12 15 21 -5 20 -11 -19 -15 -13 24 -3 27 -26 -25 28 -16 -30
right_child=2 4 -4 16 -6 8 9 -9 -10 11 13 14 -14 17 22 -17 -18 19 -20 -21 -22 -23 -24 26 25 -27 -28 -29 29 -31
leaf_value=0.041303177225486203 0.047258116595187055 0.0034686273123900528 0.04281914231513486 0.033200136054663841 0.048635067225509705 0.053925922519677628 0.011837230266070146 0.026940541140047455 0.023880706958755826 0.0023390857484037833 0.046683835559680836 -0.0023616642409451396 0.031679652835703925 -0.0043454881425163674 -0.005255849663185666 0.041580005360918132 0.096219753339453207 0.030579769093201942 0.033688625861321687 -0.00014150484767873223 0.01672259059540452 0.038172067773708997 0.035599652059164689 -0.039342155734808537 0.045339529635549165 -0.0029240611858345885 0.056174276409652779 0.021516318177869628 0.0042997911462696031 -0.023777061593832732
leaf_weight=43790.958196356893 58544.665979996324 526016.32622154057 126911.85500807315 81688.528848797083 71611.053306721151 28090.679968386889 359254.73745407164 189396.19300951809 257088.96870395541 228294.33396168798 33190.180008120835 463814.82826187462 75960.337228283286 754677.26407257468 419060.86351621151 43975.546184711158 18455.610709935427 129600.79436081648 78751.788003481925 111255.22714024782 140080.46679344773 32839.662289999425 24646.525702014565 45381.093057326972 22327.81583327055 416631.11616122723 5787.9568529874086 37877.584327444434 109009.25891988724 560713.54382898659
leaf_count=112331 148858 1506377 331371 218031 179750 70187 1088785 514259 695718 728853 82637 1519095 193785 2199162 1441395 126715 44160 340546 238155 317631 371086 105869 85747 182353 59078 1310744 17469 109927 352827 2173119
internal_value=0.0061722 0.00239978 0.0143155 0.0120724 0.0124224 0.00990456 -0.00082522 0.0093445 0.00840052 -0.00148475 0.00507542 -0.00344788 0.00424208 0.00390137 -0.00544032 0.00367476 0.0448141 0.00265098 0.0103797 0.0163891 -0.00104714 0.000318497 -0.0085391 0.000631164 -0.00923395 -0.000469115 -0.0285379 -0.0126488 -0.0138374 -0.0192071
internal_weight=5.49473e+06 3.75514e+06 1.73958e+06 1.61267e+06 914153 1.51253e+06 2.84099e+06 842542 1.45398e+06 2.7972e+06 1.19689e+06 2.43794e+06 653146 1.1688e+06 2.1309e+06 540630 100144 1.13561e+06 307046 240856 894758 496654 1.59027e+06 577185 1.56562e+06 438959 51169 1.12666e+06 1.08878e+06 669723
